tree
version=v4
num_class=1
num_tree_per_iteration=1
label_index=0
max_feature_idx=9
objective=regression
feature_names=t_mean t_max t_min HDD CDD dow is_we month doy is_hol
feature_infos=[-2.5:28.300000000000001] [-0.5:34.5] [-5.2000000000000002:23.600000000000001] [0:18] [0:6.3000000000000007] [0:6] [0:1] [1:12] [1:366] [0:1]
tree_sizes=2550 2668 2685 2653 2675 2654 2667 2686 2677 2664 2687 2696 2688 2679 2690 2705 2694 2713 2695 2704 2688 2686 2728 2681 2698 2714 2682 2719 2702 2742 2723 2730 2747 2723 2732 2749 2712 2702 2719 2723 2711 2721 2690 2690 2738 2718 2732 2732 2703 2743 2726 2714 2711 2732 2733 2708 2738 2707 2726 2720 2716 2724 2721 2727 2714 2724 2705 2725 2723 2728 2727 2720 2714 2744 2703 2704 2742 2743 2708 2743 2734 2716 2706 2728 2716 2721 2731 2744 2726 2734 2767 2723 2751 2744 2763 2741 2745 2737 2752 2761 2740 2737 2742 2747 2738 2752 2739 2777 2772 2775 2768 2741 2730 2778 2782 2791 2766 2778 2784 2776 2752 2768 2763 2741 2767 2801 2772 2715 2780 2744 2759 2773 2772 2734 2757 2775 2771 2769 2775 2757 2744 2755 2751 2767 2784 2797 2751 2759 2775 2797 2768 2774 2790 2758 2783 2780 2796 2799 2766 2782 2815 2789 2786 2786 2811 2772 2797 2780 2800 2816 2808 2772 2816 2794 2778 2778 2801 2812 2792 2779 2814 2806 2790 2801 2814 2798 2792 2816 2828 2801 2806 2794 2802 2807 2816 2840 2821 2839 2788 2821 2797 2774 2810 2812 2826 2787 2836 2806 2826 2823 2832 2815 2778 2815 2815 2816 2818 2839 2843 2786 2822 2828 2839 2807 2853 2807 2850 2803 2822 2805 2827 2850 2810 2833 2814 2804 2829 2857 2836 2819 2813 2797 2817 2838 2806 2826 2838 2830 2833 2834 2859 2832 2834 2827 2823 2813 2871 2837 2840 2819 2850 2828 2856 2783 2828 2856 2840 2764 2858 2824 2852 2818 2848 2781 2811 2864 2833 2873 2799 2813 2811 2816 2848 2841 2810 2823 2819 2829 2838 2839 2849 2824 2809 2874 2820 2843 2846 2839 2833 2832 2813 2827 2841 2826 2809 2849 2829 2823 2834 2845 2841 2827 2839 2850 2866 2833 2826 2849 2846 2835 2843 2859 2886 2868 2812 2860 2838 2868 2833 2853 2850 2813 2850 2819 2850 2879 2871 2843 2844 2802 2864 2819 2835 2849 2820 2836 2872 2877 2842 2843 2846 2855 2864 2828 2852 2840 2799 2812 2828 2842 2828 2844 2794 2862 2809 2820 2852 2815 2814 2845 2820 2818 2867 2837 2867 2859 2848 2867 2846 2830 2802 2844 2817 2825 2843 2852 2866 2833 2825 2817 2838 2824 2851 2817 2843 2829 2860 2854 2867 2840 2815 2847 2844 2837 2821 2792 2820 2855 2812 2874 2817 2834 2851 2822 2810 2823 2838 2805 2860 2822 2833 2843 2811 2829 2814 2847 2825 2836 2861 2855 2849 2830 2861 2835 2869 2828 2848 2864 2815 2815 2851 2846 2844 2852 2827 2836 2836 2856 2835 2833 2838 2861 2880 2844 2809 2838 2791 2854 2858 2806 2875 2847 2826 2806 2830 2823 2818 2815 2834 2834 2843 2843 2860 2804 2822 2857 2846 2782 2850 2831 2851 2843 2849 2824 2827 2851 2860 2837 2817 2811 2836 2828 2850 2840 2849 2834 2841 2866 2862 2828 2828 2849 2865 2857 2815 2811 2856 2830 2866 2827 2830 2859 2798 2823 2806 2840 2835 2853 2849 2837 2841 2846 2829 2823 2852 2835 2828 2836 2852 2818 2858 2863 2829 2860 2844 2821 2862 2848 2842 2844 2863 2811 2844 2842 2834 2836 2819 2844 2835 2849 2828 2849 2845 2852 2844 2857 2832 2823 2857 2843 2851 2850 2835 2822 2865 2852 2816 2839 2853 2824 2829 2858 2827 2849 2830 2853 2831 2807 2809 2829 2826 2850 2835 2835 2841 2831 2831 2847 2810 2847 2812 2854 2830 2856 2867 2855 2825 2830 2823 2840

Tree=0
num_leaves=31
num_cat=0
split_feature=1 1 8 8 8 8 5 1 5 8 8 8 5 5 5 8 8 5 8 7 8 8 5 1 8 8 0 5 1 1
split_gain=24368.8 3078.15 2021.87 1361.69 861.252 1175.24 796.376 500.149 293.751 284.069 194.292 246.793 189.285 187.393 154.198 141.411 128.778 109.155 98.4801 131.119 84.5792 106.903 75.2526 65.8896 57.2607 53.7497 52.7603 46.1009 29.4761 26.0643
threshold=14.550000000000002 9.9500000000000011 266.50000000000006 92.500000000000014 72.500000000000014 287.50000000000006 4.5000000000000009 5.0500000000000007 4.5000000000000009 88.500000000000014 118.50000000000001 244.50000000000003 3.5000000000000004 4.5000000000000009 4.5000000000000009 285.50000000000006 52.500000000000007 4.5000000000000009 126.50000000000001 8.5000000000000018 350.50000000000006 308.50000000000006 3.5000000000000004 8.7500000000000018 138.50000000000003 46.500000000000007 5.3500000000000005 3.5000000000000004 6.9500000000000011 12.65
decision_type=2 2 2 2 2 2 2 2 2 2 2 2 2 2 2 2 2 2 2 2 2 2 2 2 2 2 2 2 2 2
left_child=1 7 3 -2 13 9 10 27 16 -6 -5 22 15 25 20 -4 28 29 -8 -20 21 -7 24 -18 -12 -3 -10 -1 -9 -11
right_child=2 4 12 6 5 14 18 8 26 17 11 -13 -14 -15 -16 -17 23 -19 19 -21 -22 -23 -24 -25 -26 -27 -28 -29 -30 -31
leaf_value=33.175488949710235 32.908587149154094 33.048796520418428 32.850355949859001 32.784485922027457 32.904588601209134 32.95716575526373 32.694045937137325 33.139941516129561 33.018676562608334 32.849092387106694 32.745047814246377 32.779231056057093 32.806349776876239 32.933879583695209 32.920485438826354 32.945581988098894 33.070864388055888 32.746162966867104 32.617387897687422 32.70083539438513 32.939702877047331 33.039141223130905 32.673178182736123 33.01077063244847 32.704858964536918 33.001155927624055 32.960010290592855 33.119264376711094 33.094983521668503 32.80848257158285
leaf_weight=35 29 47 32 39 38 22 26 21 37 25 38 45 39 25 38 25 52 21 111 20 20 41 58 24 199 39 22 21 35 33
leaf_count=35 29 47 32 39 38 22 26 21 37 25 38 45 39 25 38 25 52 21 111 20 20 41 58 24 199 39 22 21 35 33
internal_value=32.8554 32.9945 32.73 32.7084 32.9372 32.905 32.6975 33.0756 33.0524 32.8372 32.7211 32.7138 32.8573 33.0062 32.9705 32.8921 33.0773 32.8048 32.6407 32.6301 32.9935 33.0105 32.7038 33.0519 32.7113 33.0272 32.9968 33.1544 33.1118 32.826
internal_weight=1257 596 661 565 349 238 536 247 191 117 379 340 96 111 121 57 132 79 157 131 83 63 295 76 237 86 59 56 56 58
internal_count=1257 596 661 565 349 238 536 247 191 117 379 340 96 111 121 57 132 79 157 131 83 63 295 76 237 86 59 56 56 58
is_linear=0
shrinkage=1


Tree=1
num_leaves=31
num_cat=0
split_feature=1 1 8 8 8 8 5 1 5 8 8 8 8 5 5 8 5 0 5 8 8 5 1 8 1 0 8 5 8 1
split_gain=22928.6 2896.23 1902.38 1281.21 810.352 1105.79 749.31 470.59 276.39 267.281 182.809 232.207 178.83 176.318 145.085 121.167 102.704 93.0875 84.9978 79.5806 100.585 70.8052 61.9956 53.8766 52.555 49.6421 48.6749 43.3763 31.0289 27.7341
threshold=14.550000000000002 9.9500000000000011 266.50000000000006 92.500000000000014 72.500000000000014 287.50000000000006 4.5000000000000009 5.0500000000000007 4.5000000000000009 88.500000000000014 118.50000000000001 244.50000000000003 288.50000000000006 4.5000000000000009 4.5000000000000009 52.500000000000007 4.5000000000000009 13.950000000000001 3.5000000000000004 350.50000000000006 308.50000000000006 3.5000000000000004 8.7500000000000018 138.50000000000003 10.750000000000002 5.3500000000000005 236.50000000000003 3.5000000000000004 46.500000000000007 6.9500000000000011
decision_type=2 2 2 2 2 2 2 2 2 2 2 2 2 2 2 2 2 2 2 2 2 2 2 2 2 2 2 2 2 2
left_child=1 7 3 -2 13 9 10 27 15 -6 -5 21 18 24 19 29 -11 -8 -4 20 -7 23 -17 -12 -3 -10 -19 -1 -26 -9
right_child=2 4 12 6 5 14 17 8 25 16 11 -13 -14 -15 -16 22 -18 26 -20 -21 -22 -23 -24 -25 28 -27 -28 -29 -30 -31
leaf_value=0.3104698914119175 0.051575146062492291 0.20788161022322518 -0.003097245991230011 -0.068803042723582328 0.047696553468704224 0.098696393966674803 -0.16738379340422779 0.27598889912877761 0.15836187214464756 -0.02854718996918407 -0.10705801267372934 -0.073900265355904882 0.049227867934955052 0.076108808577060705 0.063116485570606437 0.20898407155074752 -0.1059763102872031 -0.23045388251235802 -0.079224123704162513 0.081757400024682278 0.17821259789350558 -0.17677155190500718 0.1506931225210428 -0.14604119057631373 0.17434078965336083 0.10145558920773592 -0.18102851076559587 0.25593205860682894 0.13288077267733489 0.23237963676452636
leaf_weight=35 29 21 33 39 38 22 38 21 37 58 38 45 41 25 38 52 21 97 22 20 41 58 24 199 32 22 22 21 33 35
leaf_count=35 29 21 33 39 38 22 38 21 37 58 38 45 41 25 38 52 21 97 22 20 41 58 24 199 32 22 22 21 33 35
internal_value=3.07664e-10 0.134933 -0.121665 -0.142643 0.0792981 0.0480792 -0.153152 0.213544 0.191122 -0.0176818 -0.130322 -0.137378 0.0018042 0.146236 0.111666 0.215249 -0.0491296 -0.208263 -0.033548 0.133894 0.150445 -0.147062 0.190576 -0.139791 0.166622 0.137143 -0.221316 0.290018 0.153292 0.248733
internal_weight=1257 596 661 565 349 238 536 247 191 117 379 340 96 111 121 132 79 157 55 83 63 295 76 237 86 59 119 56 65 56
internal_count=1257 596 661 565 349 238 536 247 191 117 379 340 96 111 121 132 79 157 55 83 63 295 76 237 86 59 119 56 65 56
is_linear=0
shrinkage=0.03


Tree=2
num_leaves=31
num_cat=0
split_feature=1 1 8 7 8 8 6 1 6 8 8 8 8 6 6 8 6 6 8 7 8 8 8 1 1 8 1 0 1 8
split_gain=21573.5 2725.07 1789.95 1206.5 762.46 1040.43 709.299 442.778 260.056 251.662 178.094 218.484 169.769 165.897 136.51 114.006 105.698 102.52 90.1094 119.58 74.8773 94.6408 65.2803 58.3316 49.449 47.2142 41.3244 30.3587 30.2631 29.1951
threshold=14.550000000000002 9.9500000000000011 266.50000000000006 3.5000000000000004 72.500000000000014 287.50000000000006 1.0000000180025095e-35 5.0500000000000007 1.0000000180025095e-35 86.500000000000014 118.50000000000001 244.50000000000003 294.50000000000006 1.0000000180025095e-35 1.0000000180025095e-35 52.500000000000007 1.0000000180025095e-35 1.0000000180025095e-35 126.50000000000001 8.5000000000000018 350.50000000000006 308.50000000000006 140.50000000000003 8.7500000000000018 10.750000000000002 54.500000000000007 17.850000000000005 0.65000000000000002 12.65 46.500000000000007
decision_type=2 2 2 2 2 2 2 2 2 2 2 2 2 2 2 2 2 2 2 2 2 2 2 2 2 2 2 2 2 2
left_child=1 7 3 -2 13 9 10 27 15 -6 -5 22 17 24 20 -9 28 26 -8 -20 21 -7 -12 -17 -3 -10 -4 -1 -11 -26
right_child=2 4 12 6 5 14 18 8 25 16 11 -13 -14 -15 -16 23 -18 -19 19 -21 -22 -23 -24 -25 29 -27 -28 -29 -30 -31
leaf_value=0.30777595561483634 0.053621203681187973 0.20164516380855016 0.023245600402355193 -0.0663351023979485 0.056132095499384783 0.095735502134669914 -0.15099890828132628 0.24127111156071937 0.16224457555347019 0.00098866714371575255 -0.11178149335524615 -0.071683258573214212 0.068981810482218853 0.073825544464588166 0.061222993480531784 0.20271455265008484 -0.097023465335369111 -0.079489157360047108 -0.22430665596111399 -0.14461553692817689 0.079304683132097126 0.1728662193112257 -0.149101646884543 0.14617233276367186 0.16911056851968168 0.10837707469705492 -0.03162492771233831 0.26287703774192117 -0.041283802845648358 0.1288943490115079
leaf_weight=23 28 21 30 40 31 22 26 56 27 27 51 45 25 25 38 52 24 20 111 20 20 41 244 24 32 32 21 33 35 33
leaf_count=23 28 21 30 40 31 22 26 56 27 27 51 45 25 25 38 52 24 20 111 20 20 41 244 24 32 32 21 33 35 33
internal_value=-4.00024e-10 0.130885 -0.118015 -0.138364 0.0769192 0.0466368 -0.148375 0.207137 0.185388 -0.0171513 -0.126213 -0.133257 0.00175007 0.141849 0.108316 0.208791 -0.0435675 -0.0219231 -0.202015 -0.21214 0.129877 0.145932 -0.14265 0.184859 0.161623 0.133028 0.000651854 0.281318 -0.0228748 0.148693
internal_weight=1257 596 661 565 349 238 537 247 191 117 380 340 96 111 121 132 86 71 157 131 83 63 295 76 86 59 51 56 62 65
internal_count=1257 596 661 565 349 238 537 247 191 117 380 340 96 111 121 132 86 71 157 131 83 63 295 76 86 59 51 56 62 65
is_linear=0
shrinkage=0.03


Tree=3
num_leaves=31
num_cat=0
split_feature=1 1 1 5 7 7 7 7 7 1 7 5 5 5 5 5 7 5 7 5 5 1 7 0 1 5 7 0 1 2
split_gain=20298.5 2564.01 1583 683.616 573.526 659.086 556.416 480.982 576.843 416.61 395.192 244.686 162.22 140.644 136.289 129.439 110.511 97.1331 80.4497 77.407 54.4584 54.2066 49.7094 46.4968 41.3355 41.0308 37.4483 37.4434 34.7314 32.0668
threshold=14.550000000000002 9.9500000000000011 17.550000000000004 4.5000000000000009 2.5000000000000004 9.5000000000000018 3.5000000000000004 9.5000000000000018 3.5000000000000004 5.0500000000000007 8.5000000000000018 4.5000000000000009 3.5000000000000004 3.5000000000000004 4.5000000000000009 4.5000000000000009 8.5000000000000018 4.5000000000000009 2.5000000000000004 3.5000000000000004 3.5000000000000004 8.7500000000000018 10.500000000000002 5.3500000000000005 6.9500000000000011 3.5000000000000004 4.5000000000000009 9.2500000000000018 11.450000000000001 10.15
decision_type=2 2 2 2 2 2 2 2 2 2 2 2 2 2 2 2 2 2 2 2 2 2 2 2 2 2 2 2 2 2
left_child=1 9 7 10 15 6 12 8 -2 25 20 18 -6 -9 22 28 -5 26 24 -8 29 -20 -7 -13 -11 -1 -10 -24 -3 -4
right_child=2 4 3 16 5 14 19 13 17 11 -12 23 -14 -15 -16 -17 -18 -19 21 -21 -22 -23 27 -25 -26 -27 -28 -29 -30 -31
leaf_value=0.29276920223236086 0.051528721451759338 0.18670709190697504 -0.10227709329128265 -0.21379997713375934 0.10857846002829702 0.083859371163628307 -0.02797937176213032 0.071351929404772821 -0.0584630641443976 0.2604710875238691 -0.056601881189132799 0.14957353321281638 0.015258397579193115 -0.023615496173501015 0.055932243168354032 0.075005575820803638 -0.14030777530236677 -0.14891085278987884 0.19767629450017754 -0.093396596047613356 -0.16367174281912333 0.13909376629761286 0.16579112827777862 0.09449951145289974 0.20967482126277426 0.23972638198307583 -0.10033763309842661 0.11861003733262783 0.14285859621859887 -0.13591886329650876
leaf_weight=35 27 29 30 113 38 22 41 32 29 21 67 37 30 25 40 20 22 30 44 27 59 21 24 22 46 21 57 41 37 170
leaf_count=35 27 29 30 113 38 22 41 32 29 21 67 37 30 25 40 20 22 30 44 27 59 21 24 22 46 21 57 41 37 170
internal_value=7.5635e-10 0.126959 -0.114474 -0.145053 0.0746116 0.05262 0.00672699 -0.0439892 -0.0733617 0.200923 -0.121544 0.179827 0.0674078 0.0296995 0.101765 0.141865 -0.201823 -0.102431 0.202528 -0.0539539 -0.138344 0.17875 0.122838 0.129037 0.225596 0.272878 -0.0862171 0.136031 0.162125 -0.130873
internal_weight=1257 596 661 461 349 263 136 200 143 247 326 191 68 57 127 86 135 116 132 68 259 65 87 59 67 56 86 65 66 200
internal_count=1257 596 661 461 349 263 136 200 143 247 326 191 68 57 127 86 135 116 132 68 259 65 87 59 67 56 86 65 66 200
is_linear=0
shrinkage=0.03


Tree=4
num_leaves=31
num_cat=0
split_feature=1 1 8 7 8 8 5 1 5 8 8 8 5 5 8 5 8 8 5 8 8 7 5 1 8 1 8 5 1 8
split_gain=19098.9 2412.48 1599.03 1071.25 681.054 927.004 626.381 391.988 230.225 223.506 161.37 193.167 159.086 146.944 122.305 120.71 116.871 101.984 87.9537 87.124 82.9112 106.743 62.8682 51.8294 46.2709 45.0568 44.2193 38.6059 28.1755 26.2889
threshold=14.550000000000002 9.9500000000000011 266.50000000000006 3.5000000000000004 72.500000000000014 287.50000000000006 4.5000000000000009 5.0500000000000007 4.5000000000000009 88.500000000000014 118.50000000000001 244.50000000000003 3.5000000000000004 4.5000000000000009 352.50000000000006 4.5000000000000009 285.50000000000006 52.500000000000007 4.5000000000000009 308.50000000000006 126.50000000000001 8.5000000000000018 3.5000000000000004 8.7500000000000018 144.50000000000003 10.750000000000002 54.500000000000007 3.5000000000000004 26.250000000000004 46.500000000000007
decision_type=2 2 2 2 2 2 2 2 2 2 2 2 2 2 2 2 2 2 2 2 2 2 2 2 2 2 2 2 2 2
left_child=1 7 3 -2 13 9 10 27 17 -6 -5 22 16 25 15 19 -4 -9 -11 -7 -8 -22 24 -19 -12 -3 -10 -1 -26 -27
right_child=2 4 12 6 5 14 20 8 26 18 11 -13 -14 -15 -16 -17 -18 23 -20 -21 21 -23 -24 -25 28 29 -28 -29 -30 -31
leaf_value=0.28398612049647737 0.050631498625235895 0.19055265648024422 -0.0038670511089731008 -0.061883276335895056 0.04332776130814301 0.090158106955614964 -0.14117801716694464 0.22717128396034239 0.15344077944755552 -0.026167893493226891 -0.10256344467401504 -0.067688917428255072 -0.044530461530845895 0.069719092816114422 0.037991401925683017 0.06825822269835044 0.082702965259551994 0.1906474444270134 -0.097821518353053499 0.16300480715433754 -0.21132129656301962 -0.13602912819385529 -0.16241259542004816 0.1373496726900339 -0.13974451612657116 0.15938151793554425 0.1013097739429213 0.23253458329609464 -0.10798190999031065 0.12121943712234498
leaf_weight=35 28 21 32 40 38 22 26 56 27 58 52 45 39 25 22 32 25 52 21 45 111 20 58 24 155 32 32 21 30 33
leaf_count=35 28 21 32 40 38 22 26 56 27 58 52 45 39 25 22 32 25 52 21 45 111 20 58 24 155 32 32 21 30 33
internal_value=5.09049e-10 0.12315 -0.11104 -0.130274 0.0723733 0.0437531 -0.139706 0.194896 0.174432 -0.0164576 -0.11888 -0.125586 0.00215771 0.133739 0.101973 0.116191 0.0341023 0.196452 -0.0452151 0.139085 -0.190114 -0.199826 -0.134417 0.173817 -0.127566 0.152349 0.125166 0.264692 -0.134594 0.140007
internal_weight=1257 596 661 565 349 238 537 247 191 117 380 340 96 111 121 99 57 132 79 67 157 131 295 76 237 86 59 56 185 65
internal_count=1257 596 661 565 349 238 537 247 191 117 380 340 96 111 121 99 57 132 79 67 157 131 295 76 237 86 59 56 185 65
is_linear=0
shrinkage=0.03


Tree=5
num_leaves=31
num_cat=0
split_feature=0 0 8 8 8 8 5 0 8 8 5 8 8 8 5 5 8 5 5 7 8 5 5 5 8 8 8 8 8 0
split_gain=16312.5 2526.21 2141.66 1217.7 787.339 1187.43 583.189 322.954 307.8 215.823 152.225 151.483 148.058 167.65 129.952 126.832 109.898 100.336 96.9317 78.5553 77.9941 62.2936 54.6404 50.563 47.688 43.784 41.9226 38.2241 36.6189 36.5406
threshold=11.15 6.8500000000000005 266.50000000000006 92.500000000000014 74.500000000000014 287.50000000000006 4.5000000000000009 3.5500000000000003 88.500000000000014 286.50000000000006 4.5000000000000009 353.50000000000006 244.50000000000003 131.50000000000003 2.5000000000000004 4.5000000000000009 52.500000000000007 3.5000000000000004 4.5000000000000009 8.5000000000000018 138.50000000000003 4.5000000000000009 2.5000000000000004 3.5000000000000004 46.500000000000007 319.50000000000006 313.50000000000006 24.500000000000004 66.500000000000014 9.7500000000000018
decision_type=2 2 2 2 2 2 2 2 2 2 2 2 2 2 2 2 2 2 2 2 2 2 2 2 2 2 2 2 2 2
left_child=1 7 3 -2 15 8 12 18 -6 22 16 14 13 -5 29 24 -9 -11 27 20 -8 -10 -4 -15 -3 28 -16 -1 -18 -7
right_child=2 4 9 6 5 11 19 10 21 17 -12 -13 -14 23 26 -17 25 -19 -20 -21 -22 -23 -24 -25 -26 -27 -28 -29 -30 -31
leaf_value=0.27968883024528624 0.052723500957945361 0.17125893905110981 0.0027873411330466085 -0.078804910989888635 0.044200346357189113 0.19155650675296781 -0.15580783063715153 0.2197760111945016 -0.039343676384100142 0.086569266368945436 0.11312863345071672 0.031759354915469884 -0.065810286013240155 -0.12822246844427926 0.058200585288660865 0.079219272878020996 0.16685900109154836 0.0083354861352592704 0.18702318134307863 -0.1319482533931732 -0.2090633422678167 -0.092511026603834964 -0.058144947977529629 -0.16126529161746686 0.12264136576652526 0.18502392080697147 0.11385784642449739 0.23122041490342882 0.11083431727119855 0.13489656073706491
leaf_weight=32 32 46 26 59 40 20 33 42 68 36 40 20 44 210 21 30 21 25 25 20 99 28 27 52 30 33 29 27 21 21
leaf_count=32 32 46 26 59 40 20 33 42 68 36 40 20 44 210 21 30 21 25 25 20 99 28 27 52 30 33 29 27 21 21
internal_value=2.50612e-10 0.114177 -0.102294 -0.126864 0.0630575 0.0337068 -0.13798 0.189053 -0.0257181 0.0160302 0.16365 0.106516 -0.117418 -0.124492 0.122946 0.13145 0.180923 0.0545062 0.236531 -0.187355 -0.195749 -0.0548508 -0.0282536 -0.134781 0.152068 0.159165 0.0904818 0.257508 0.138847 0.162536
internal_weight=1257 594 663 549 353 247 517 241 136 114 157 111 365 321 91 106 117 61 84 152 132 96 53 262 76 75 50 59 42 41
internal_count=1257 594 663 549 353 247 517 241 136 114 157 111 365 321 91 106 117 61 84 152 132 96 53 262 76 75 50 59 42 41
is_linear=0
shrinkage=0.03


Tree=6
num_leaves=31
num_cat=0
split_feature=1 1 1 5 7 7 7 7 7 1 7 5 5 5 5 5 7 5 5 7 5 1 7 0 1 5 0 7 1 2
split_gain=16923.7 2143.58 1334.85 571.404 477.05 555.942 465.831 403.029 476.796 350.024 326.526 204.584 143.847 117.817 116.299 107.898 89.3779 81.1422 66.1599 66.0499 46.4227 46.0954 42.2865 41.7398 36.3562 34.2304 33.3331 31.3727 30.2277 27.231
threshold=14.550000000000002 9.9500000000000011 17.550000000000004 4.5000000000000009 2.5000000000000004 9.5000000000000018 3.5000000000000004 9.5000000000000018 3.5000000000000004 5.0500000000000007 8.5000000000000018 4.5000000000000009 3.5000000000000004 3.5000000000000004 4.5000000000000009 4.5000000000000009 8.5000000000000018 4.5000000000000009 3.5000000000000004 2.5000000000000004 3.5000000000000004 8.7500000000000018 10.500000000000002 5.3500000000000005 6.9500000000000011 3.5000000000000004 9.2500000000000018 4.5000000000000009 11.450000000000001 10.15
decision_type=2 2 2 2 2 2 2 2 2 2 2 2 2 2 2 2 2 2 2 2 2 2 2 2 2 2 2 2 2 2
left_child=1 9 7 10 15 6 12 8 -2 25 20 19 -6 -9 22 28 -5 27 -8 24 29 -21 -7 -13 -11 -1 -24 -10 -3 -4
right_child=2 4 3 16 5 14 18 13 17 11 -12 23 -14 -15 -16 -17 -18 -19 -20 21 -22 -23 26 -25 -26 -27 -28 -29 -30 -31
leaf_value=0.26767711237498693 0.046856513486968149 0.17082915883639763 -0.093134041726589192 -0.19527886371696945 0.10014733622732916 0.076656972413713276 -0.025652680824079167 0.06577516073710285 -0.052894224475683836 0.23858401324067796 -0.052081530209797534 0.13723328590393066 0.012270507306791842 -0.021144353828206657 0.050802904689218845 0.068355625818483534 -0.12918628042394464 -0.13559850192070005 -0.086130960649914212 0.18088283615356143 -0.14976805905164298 0.12686081188065665 0.15285510063171387 0.085052514353936376 0.19094535003537716 0.2192289216177804 0.10833886596487789 -0.091221674114073573 0.12992230096781573 -0.12413554552022149
leaf_weight=35 27 29 30 113 38 22 41 32 29 21 67 37 30 25 40 20 22 30 27 44 59 21 24 22 46 21 41 57 37 170
leaf_count=35 27 29 30 113 38 22 41 32 29 21 67 37 30 25 40 20 22 30 27 44 59 21 24 22 46 21 41 57 37 170
internal_value=-2.33075e-10 0.115926 -0.104526 -0.132606 0.0680621 0.0480053 0.00585602 -0.039801 -0.0666881 0.183555 -0.111113 0.164217 0.0613781 0.0276526 0.0931416 0.129399 -0.184508 -0.0931166 -0.0496661 0.184975 -0.126384 0.16343 0.112608 0.117776 0.205877 0.249509 0.124776 -0.0782973 0.147897 -0.119485
internal_weight=1257 596 661 461 349 263 136 200 143 247 326 191 68 57 127 86 135 116 68 132 259 65 87 59 67 56 65 86 66 200
internal_count=1257 596 661 461 349 263 136 200 143 247 326 191 68 57 127 86 135 116 68 132 259 65 87 59 67 56 65 86 66 200
is_linear=0
shrinkage=0.03


Tree=7
num_leaves=31
num_cat=0
split_feature=1 1 8 7 8 8 5 1 8 5 8 5 8 8 5 8 5 8 1 5 8 8 8 8 5 1 1 5 8 8
split_gain=15923.5 2016.9 1342.5 901.455 571.053 778.807 522.193 329.338 219.381 204.486 188.022 164.432 144.433 150.523 123.204 110.414 102.885 96.5755 85.1357 84.1689 77.0005 76.3412 58.8712 58.7319 47.1696 40.1503 35.4667 32.2074 28.527 26.8176
threshold=14.550000000000002 9.9500000000000011 264.50000000000006 3.5000000000000004 72.500000000000014 287.50000000000006 4.5000000000000009 5.0500000000000007 348.50000000000006 4.5000000000000009 86.500000000000014 3.5000000000000004 130.50000000000003 244.50000000000003 4.5000000000000009 352.50000000000006 4.5000000000000009 285.50000000000006 7.8500000000000005 4.5000000000000009 126.50000000000001 308.50000000000006 240.50000000000003 282.50000000000006 3.5000000000000004 10.750000000000002 7.9500000000000011 3.5000000000000004 38.500000000000007 106.50000000000001
decision_type=2 2 2 2 2 2 2 2 2 2 2 2 2 2 2 2 2 2 2 2 2 2 2 2 2 2 2 2 2 2
left_child=1 7 3 -2 14 10 12 27 9 18 -6 17 29 24 25 16 21 -4 -9 -12 -8 -7 -22 -13 -14 -3 -11 -1 -20 -5
right_child=2 4 11 6 5 15 20 8 -10 26 19 23 13 -15 -16 -17 -18 -19 28 -21 22 -23 -24 -25 -26 -27 -28 -29 -30 -31
leaf_value=0.25964679500034876 0.046250365827498689 0.17531625177179064 -0.0016962575686492903 -0.043451793232689731 0.047968154162649185 0.082022869803688739 -0.12788121452698339 0.21981200890408623 0.065277721479535103 0.14847874356352764 -0.019742946415658918 -0.081805437429408934 -0.12012722268839864 -0.065305171566350115 0.063591478121280673 0.03238510542633858 0.062433434519916772 0.07597694406509399 0.19761206626892089 -0.085910454541444775 -0.19326523873541088 0.15021283253033954 -0.13723132860660553 -0.011664501761340283 -0.15174003839492797 0.12760194089464269 0.098593684229357478 0.21265205757958547 0.1551138933350078 -0.083273130503793563
leaf_weight=35 28 21 34 23 31 22 26 54 20 23 62 21 214 42 25 22 32 25 21 24 108 45 20 22 53 65 29 21 44 45
leaf_count=35 28 21 34 23 31 22 26 54 20 23 62 21 214 42 25 22 32 25 21 24 108 45 20 22 53 65 29 21 44 45
internal_value=-6.50703e-11 0.112448 -0.10139 -0.119653 0.0660203 0.0398131 -0.128401 0.178048 0.159291 0.170286 -0.0153752 -0.00130179 -0.109387 -0.118098 0.122212 0.093177 0.106686 0.0312161 0.191972 -0.0382083 -0.174949 0.127822 -0.18451 -0.0459194 -0.126402 0.139253 0.120658 0.242024 0.168844 -0.0698041
internal_weight=1257 596 661 559 349 238 531 247 191 171 117 102 377 309 111 121 99 59 119 86 154 67 128 43 267 86 52 56 65 68
internal_count=1257 596 661 559 349 238 531 247 191 171 117 102 377 309 111 121 99 59 119 86 154 67 128 43 267 86 52 56 65 68
is_linear=0
shrinkage=0.03


Tree=8
num_leaves=31
num_cat=0
split_feature=1 1 8 7 8 8 5 1 8 8 5 5 8 8 5 8 5 8 1 5 8 8 8 8 5 1 5 8 1 1
split_gain=14982.5 1897.7 1263.16 848.179 538.119 659.365 491.331 309.874 259.009 206.416 192.401 154.714 135.897 141.627 106.047 103.888 96.8045 90.8679 80.1042 79.1945 72.4498 71.8294 55.392 55.2609 44.3819 33.3706 30.3039 26.8411 26.5175 25.9943
threshold=14.550000000000002 9.9500000000000011 264.50000000000006 3.5000000000000004 68.500000000000014 287.50000000000006 4.5000000000000009 5.0500000000000007 86.500000000000014 348.50000000000006 4.5000000000000009 3.5000000000000004 130.50000000000003 244.50000000000003 4.5000000000000009 352.50000000000006 4.5000000000000009 285.50000000000006 7.8500000000000005 4.5000000000000009 126.50000000000001 308.50000000000006 240.50000000000003 282.50000000000006 3.5000000000000004 7.9500000000000011 3.5000000000000004 38.500000000000007 12.65 10.750000000000002
decision_type=2 2 2 2 2 2 2 2 2 2 2 2 2 2 2 2 2 2 2 2 2 2 2 2 2 2 2 2 2 2
left_child=1 7 3 -2 14 8 12 26 -6 10 18 17 -5 24 29 16 21 -4 -9 28 -8 -7 -22 -13 -14 -12 -1 -20 -10 -3
right_child=2 4 11 6 5 15 20 9 19 -11 25 23 13 -15 -16 -17 -18 -19 27 -21 22 -23 -24 -25 -26 -27 -28 -29 -30 -31
leaf_value=0.25185739885057723 0.04486285520052271 0.16859797869622709 -0.0016453698869137202 -0.067710024055970056 0.054568309196975175 0.079562182480638677 -0.12404478096044981 0.2132176460739639 0.0031872982449001734 0.063319390743970874 0.14402437743933302 -0.079351275914481711 -0.11652340573685191 -0.063346015321356905 0.065802860117476922 0.031413552155929871 0.060560432018246499 0.073697637212276457 0.19168370383126393 -0.083333140909671782 -0.18746728618939715 0.14570644831657409 -0.13311438810825349 -0.011314566902477632 -0.14718783765468957 0.095635872904596658 0.20627249172755649 0.1504604757865044 -0.036382796632392064 0.12893559006396038
leaf_weight=35 28 20 34 68 41 22 26 54 27 20 23 21 214 42 23 22 32 25 21 24 108 45 20 22 53 29 21 44 35 58
leaf_count=35 28 20 34 68 41 22 26 54 27 20 23 21 214 42 23 22 32 25 21 24 108 45 20 22 53 29 21 44 35 58
internal_value=-4.28286e-10 0.109074 -0.0983485 -0.116064 0.0640397 0.0402668 -0.124549 0.172706 -0.00748059 0.154512 0.165178 -0.00126273 -0.106106 -0.114555 0.122413 0.0903817 0.103486 0.0302796 0.186213 -0.037062 -0.169701 0.123987 -0.178975 -0.0445418 -0.12261 0.117038 0.234763 0.163779 -0.0191507 0.139105
internal_weight=1257 596 661 559 349 248 531 247 127 191 171 102 377 309 101 121 99 59 119 86 154 67 128 43 267 52 56 65 62 78
internal_count=1257 596 661 559 349 248 531 247 127 191 171 102 377 309 101 121 99 59 119 86 154 67 128 43 267 52 56 65 62 78
is_linear=0
shrinkage=0.03


Tree=9
num_leaves=31
num_cat=0
split_feature=0 0 8 8 8 8 5 8 8 8 8 5 8 8 8 5 5 8 5 0 8 5 7 8 5 5 5 5 8 8
split_gain=12832.5 1984.82 1687.13 947.283 622.901 871.623 458.579 276.918 263.334 168.457 158.516 117.764 115.852 137.675 89.9453 89.5968 83.5507 81.92 80.6598 76.6355 72.685 71.9196 63.0987 64.1299 53.7082 53.0369 44.9796 37.7954 28.1276 25.8772
threshold=11.15 6.8500000000000005 266.50000000000006 92.500000000000014 68.500000000000014 299.50000000000006 4.5000000000000009 88.500000000000014 52.500000000000007 286.50000000000006 353.50000000000006 4.5000000000000009 244.50000000000003 138.50000000000003 270.50000000000006 2.5000000000000004 4.5000000000000009 319.50000000000006 3.5000000000000004 1.1000000000000003 338.50000000000006 3.5000000000000004 8.5000000000000018 138.50000000000003 4.5000000000000009 4.5000000000000009 2.5000000000000004 3.5000000000000004 46.500000000000007 66.500000000000014
decision_type=2 2 2 2 2 2 2 2 2 2 2 2 2 2 2 2 2 2 2 2 2 2 2 2 2 2 2 2 2 2
left_child=1 8 3 -2 16 7 12 21 19 26 15 17 13 -5 25 -7 28 29 -11 -1 -19 -6 23 -8 -21 -9 -4 -15 -3 -10
right_child=2 4 9 6 5 10 22 14 11 18 -12 -13 -14 27 -16 -17 -18 20 -20 24 -22 -23 -24 -25 -26 -27 -28 -29 -30 -31
leaf_value=0.24878925593002979 0.045860156023409218 0.15221166598732055 0.003330946059969182 -0.074151957307859284 0.077684385188456093 0.15481066147486369 -0.1374292265285145 -0.038874706485075877 0.14791753227060492 0.077031672224402423 0.025284121454693376 0.087420219544437711 -0.058455964475870127 -0.11513881692380616 0.017638439878821372 0.090993874684314829 0.076419612020254143 0.21539854178061851 0.0068871914785355332 0.20197180812342969 0.14035793491772244 0.0052008321542631498 -0.11646633964776992 -0.18571996313152889 0.15196064525180392 -0.091989581947741303 -0.051952922840913129 -0.14432981801033021 0.11157958652662193 0.10190418023277412
leaf_weight=23 32 46 26 73 28 36 33 64 22 36 20 32 44 198 20 44 27 26 25 68 21 22 20 99 27 23 27 50 23 22
leaf_count=23 32 46 26 73 28 36 33 64 22 36 20 32 44 198 20 44 27 26 25 68 21 22 20 99 27 23 27 50 23 22
internal_value=-4.61566e-10 0.101268 -0.0907288 -0.112536 0.0559564 0.0316 -0.12234 -0.0124929 0.167637 0.0142912 0.100826 0.136922 -0.104107 -0.110365 -0.0397287 0.119711 0.12116 0.154329 0.0482839 0.199654 0.18187 0.0457916 -0.166123 -0.173647 0.187758 -0.0529166 -0.0248325 -0.121024 0.138668 0.124911
internal_weight=1257 594 663 549 353 257 517 157 241 114 100 123 365 321 107 80 96 91 61 118 47 50 152 132 95 87 53 248 69 44
internal_count=1257 594 663 549 353 257 517 157 241 114 100 123 365 321 107 80 96 91 61 118 47 50 152 132 95 87 53 248 69 44
is_linear=0
shrinkage=0.03


Tree=10
num_leaves=31
num_cat=0
split_feature=1 1 8 8 8 8 5 1 8 8 5 5 8 8 5 5 8 1 8 5 8 1 8 8 5 1 8 1 5 1
split_gain=13277.2 1687.76 1117.6 748.752 476.678 655.087 431.967 278.395 188.565 172.865 170.707 139.503 119.645 113.224 104.212 97.0079 79.634 72.612 65.129 57.5016 55.1086 50.3474 49.0087 71.7745 44.7881 34.8747 34.3143 30.2399 27.9238 26.9023
threshold=14.550000000000002 9.9500000000000011 264.50000000000006 92.500000000000014 72.500000000000014 283.50000000000006 4.5000000000000009 5.0500000000000007 348.50000000000006 88.500000000000014 4.5000000000000009 3.5000000000000004 118.50000000000001 244.50000000000003 4.5000000000000009 4.5000000000000009 285.50000000000006 7.8500000000000005 137.50000000000003 3.5000000000000004 240.50000000000003 16.350000000000005 350.50000000000006 308.50000000000006 3.5000000000000004 10.750000000000002 144.50000000000003 7.9500000000000011 3.5000000000000004 26.250000000000004
decision_type=2 2 2 2 2 2 2 2 2 2 2 2 2 2 2 2 2 2 2 2 2 2 2 2 2 2 2 2 2 2
left_child=1 7 3 -2 14 9 12 28 10 -6 17 16 -5 24 25 22 -4 -9 -8 -11 -20 -13 23 -7 26 -3 -14 -12 -1 -28
right_child=2 4 11 6 5 15 18 8 -10 19 27 21 13 -15 -16 -17 -18 -19 20 -21 -22 -23 -24 -25 -26 -27 29 -29 -30 -31
leaf_value=0.237918135370527 0.039184988265022126 0.16083098083734512 -0.0011966626177651479 -0.050288347478669421 0.035484506750577377 0.073545013475418086 -0.12499406701809651 0.20116192865702842 0.058282747328281398 -0.020779953821952087 0.13598200196805207 -0.01064275818114931 -0.085038480162620542 -0.059705943912267682 0.057634311836957927 0.044592734120786189 0.069335471981763833 0.15409179412860138 -0.18000722305061889 -0.074379601449735697 -0.12531532502174378 -0.075584347588675369 0.060002371201291677 0.1380385840520626 -0.13598177827637772 0.1163617572921973 -0.1176547119925099 0.089919201906385096 0.19415999650955199 -0.086618031501770013
leaf_weight=35 29 21 34 39 38 25 37 54 20 43 23 22 52 42 25 40 25 65 97 31 20 21 20 41 58 65 155 29 21 30
leaf_count=35 29 21 34 39 38 25 37 54 20 43 23 22 52 42 25 40 25 65 97 31 20 21 20 41 58 65 155 29 21 30
internal_value=2.31297e-10 0.10268 -0.0925824 -0.109246 0.0602089 0.036265 -0.117367 0.162689 0.145443 -0.0165258 0.155637 -0.00126188 -0.100034 -0.105791 0.111548 0.0831902 0.0286898 0.175451 -0.159687 -0.0432339 -0.170658 -0.0423584 0.101142 0.113609 -0.112352 0.127221 -0.10657 0.110293 0.221509 -0.112622
internal_weight=1257 596 661 559 349 238 530 247 191 112 171 102 376 337 111 126 59 119 154 74 117 43 86 66 295 86 237 52 56 185
internal_count=1257 596 661 559 349 238 530 247 191 112 171 102 376 337 111 126 59 119 154 74 117 43 86 66 295 86 237 52 56 185
is_linear=0
shrinkage=0.03


Tree=11
num_leaves=31
num_cat=0
split_feature=1 1 8 8 8 8 5 1 8 8 5 8 5 8 5 5 8 1 8 5 8 8 8 5 1 8 1 1 0 1
split_gain=12492.5 1588.01 1051.55 706.668 448.507 616.372 414.619 261.942 177.421 162.649 160.618 134.364 131.414 106.532 98.0534 91.2747 85.3632 68.3206 66.3577 54.1032 46.1123 67.6264 43.7353 42.1411 32.8136 32.2863 30.1422 28.5661 27.1876 25.3124
threshold=14.550000000000002 9.9500000000000011 264.50000000000006 88.500000000000014 72.500000000000014 283.50000000000006 4.5000000000000009 5.0500000000000007 348.50000000000006 88.500000000000014 4.5000000000000009 118.50000000000001 4.5000000000000009 244.50000000000003 4.5000000000000009 4.5000000000000009 293.50000000000006 7.8500000000000005 122.50000000000001 3.5000000000000004 350.50000000000006 306.50000000000006 240.50000000000003 3.5000000000000004 10.750000000000002 144.50000000000003 17.450000000000003 7.8500000000000005 0.65000000000000002 26.250000000000004
decision_type=2 2 2 2 2 2 2 2 2 2 2 2 2 2 2 2 2 2 2 2 2 2 2 2 2 2 2 2 2 2
left_child=1 7 3 -2 14 9 11 28 10 -6 17 -5 16 23 24 20 26 -9 -8 -11 21 -7 -20 25 -3 -13 -4 -12 -1 -27
right_child=2 4 12 6 5 15 18 8 -10 19 27 13 -14 -15 -16 -17 -18 -19 22 -21 -22 -23 -24 -25 -26 29 -28 -29 -30 -31
leaf_value=0.23990192102349323 0.05328721533180214 0.15600605091612252 0.022511169742792842 -0.046304818705417389 0.034419971373128265 0.070028642788529383 -0.10620110685175115 0.19512707066204812 0.056534267015755174 -0.020156554791989714 0.13400002820151191 -0.082487325118138249 -0.055250163508643362 -0.057914765051433018 0.0559052830606699 0.043254952375777068 0.073048640339635318 0.14946904019209054 -0.16968507395381421 -0.072148215328493429 0.05820229974389076 0.13315651331629072 -0.12155586397647858 -0.13190232013833933 0.1128709060549736 -0.11412506860302341 -0.02274500171922577 0.088683385964362843 0.19741259011355314 -0.084019492506980889
leaf_weight=23 24 21 27 43 38 24 22 54 20 43 21 52 29 42 25 40 20 65 113 31 20 42 20 58 65 155 26 31 33 30
leaf_count=23 24 21 27 43 38 24 22 54 20 43 21 52 29 42 25 40 20 65 113 31 20 42 20 58 65 155 26 31 33 30
internal_value=3.52636e-11 0.0995991 -0.089805 -0.105968 0.0584026 0.035177 -0.113112 0.157808 0.14108 -0.0160301 0.150968 -0.0962452 -0.00122402 -0.102617 0.108202 0.0806945 0.0202384 0.170188 -0.154464 -0.0419368 0.0981082 0.110201 -0.162448 -0.108982 0.123404 -0.103373 0.000310029 0.106984 0.214864 -0.109243
internal_weight=1257 596 661 559 349 238 535 247 191 112 171 380 102 337 111 126 73 119 155 74 86 66 133 295 86 237 53 52 56 185
internal_count=1257 596 661 559 349 238 535 247 191 112 171 380 102 337 111 126 73 119 155 74 86 66 133 295 86 237 53 52 56 185
is_linear=0
shrinkage=0.03


Tree=12
num_leaves=31
num_cat=0
split_feature=1 1 1 5 7 7 7 7 7 1 7 5 5 5 5 5 7 5 5 7 1 0 5 0 5 7 0 1 5 1
split_gain=11754.2 1495.17 956.846 400.41 305.887 382.95 340.269 281.321 324.239 256.343 224.64 154.045 106.693 92.7618 83.9682 70.3856 60.3062 55.7947 55.4208 51.8804 49.5554 36.248 34.278 31.0704 26.4391 22.7309 20.2468 22.7393 19.485 18.8287
threshold=14.550000000000002 10.050000000000002 17.550000000000004 4.5000000000000009 2.5000000000000004 9.5000000000000018 3.5000000000000004 9.5000000000000018 3.5000000000000004 5.0500000000000007 8.5000000000000018 4.5000000000000009 3.5000000000000004 4.5000000000000009 3.5000000000000004 4.5000000000000009 8.5000000000000018 4.5000000000000009 3.5000000000000004 1.5000000000000002 8.7500000000000018 5.3500000000000005 3.5000000000000004 9.2500000000000018 3.5000000000000004 4.5000000000000009 14.550000000000002 25.450000000000003 2.5000000000000004 11.450000000000001
decision_type=2 2 2 2 2 2 2 2 2 2 2 2 2 2 2 2 2 2 2 2 2 2 2 2 2 2 2 2 2 2
left_child=1 9 7 10 15 6 12 8 -2 24 22 19 -6 23 -9 29 -5 25 -8 -11 28 -13 26 -7 -1 -10 -4 -28 -21 -3
right_child=2 4 3 16 5 13 18 14 17 11 -12 21 -14 -15 -16 -17 -18 -19 -20 20 -22 -23 -24 -25 -26 -27 27 -29 -30 -31
leaf_value=0.22438475990295409 0.038859160972966086 0.14091104192802537 -0.074377147936820986 -0.16317978270285952 0.085183864861334613 0.12103919896814556 -0.021803337022031816 0.05622817878727801 -0.042657191432241733 0.18389514220727454 -0.043929957794164545 0.11538415615623061 0.0080064451687836217 0.038633526145265648 -0.017150696584582327 0.056748557031154633 -0.10888994238593361 -0.11179596036672591 -0.077794088698350458 0.16901386295640189 0.11154644586145877 0.06862266198545694 -0.12565314167636935 0.082286962419748297 0.1818058294909341 -0.075281546364881477 -0.10912550338109335 -0.083372262194752689 0.13527198761701584 0.10759803167871526
leaf_weight=35 27 26 25 113 38 27 41 32 29 37 67 37 28 39 25 20 22 30 26 43 32 25 59 60 21 57 135 40 24 37
leaf_count=35 27 26 25 113 38 27 41 32 29 37 67 37 28 39 25 20 22 30 26 43 32 25 59 60 21 57 135 40 24 37
internal_value=1.77865e-10 0.0966112 -0.0871108 -0.110885 0.0556619 0.0396006 0.00409462 -0.0323113 -0.0547747 0.151748 -0.092893 0.13572 0.0524419 0.0770792 0.0240445 0.105781 -0.154333 -0.0765688 -0.0435311 0.153586 0.142259 0.0965287 -0.105559 0.0943135 0.208418 -0.0642803 -0.0996313 -0.103239 0.156927 0.121346
internal_weight=1257 596 661 461 342 259 133 200 143 254 326 198 66 126 57 83 135 116 67 136 99 62 259 87 56 86 200 175 67 63
internal_count=1257 596 661 461 342 259 133 200 143 254 326 198 66 126 57 83 135 116 67 136 99 62 259 87 56 86 200 175 67 63
is_linear=0
shrinkage=0.03


Tree=13
num_leaves=31
num_cat=0
split_feature=0 0 8 8 8 8 5 8 8 8 8 5 8 8 5 5 5 8 7 8 5 5 0 8 5 0 8 8 8 0
split_gain=10093.7 1566.3 1329.29 737.185 511.641 739.7 360.862 216.403 199.321 145.84 135.218 111.912 90.3977 112.804 77.8696 67.7781 66.6323 61.2825 50.6803 52.2229 48.309 45.9001 43.1418 44.9367 30.2762 29.8785 29.4207 25.4295 20.5266 20.1684
threshold=11.15 6.7500000000000009 266.50000000000006 92.500000000000014 68.500000000000014 299.50000000000006 4.5000000000000009 86.500000000000014 24.500000000000004 353.50000000000006 294.50000000000006 4.5000000000000009 244.50000000000003 138.50000000000003 2.5000000000000004 4.5000000000000009 3.5000000000000004 270.50000000000006 8.5000000000000018 138.50000000000003 4.5000000000000009 2.5000000000000004 3.7500000000000004 52.500000000000007 3.5000000000000004 9.3500000000000032 319.50000000000006 46.500000000000007 110.50000000000001 21.150000000000002
decision_type=2 2 2 2 2 2 2 2 2 2 2 2 2 2 2 2 2 2 2 2 2 2 2 2 2 2 2 2 2 2
left_child=1 8 3 -2 15 7 12 -6 21 14 16 22 13 28 -7 27 -4 20 19 -8 25 -1 -10 -24 29 -9 -25 -3 -5 -15
right_child=2 4 10 6 5 9 18 17 11 -11 -12 -13 -14 24 -16 -17 -18 -19 -20 -21 -22 -23 23 26 -26 -27 -28 -29 -30 -31
leaf_value=0.23139122392820274 0.039907545070163905 0.13682939639315009 0.010153614314893882 -0.04001394655023302 0.044675545460036534 0.14043910955127917 -0.12137142289768564 -0.0098520031774585893 0.17881711184978485 0.018572660174220799 0.055531686299613546 0.094127375534128241 -0.051972871172157195 -0.10567819807188851 0.082115265195568402 0.068558388269609874 -0.049459490767783588 0.014174600936472416 -0.10280860090255736 -0.16494910774808941 -0.078453931235350091 0.17683500031062535 0.17003311157226561 0.1078343943428052 -0.12833350811004637 -0.049371977982421718 0.14721655847564818 0.098464414762414007 -0.075156235872552934 -0.07579639730246171
leaf_weight=23 32 48 45 21 44 38 33 33 32 20 42 46 44 175 45 27 27 20 20 99 26 35 29 38 50 36 31 23 52 23
leaf_count=23 32 48 45 21 44 38 33 33 32 20 42 46 44 175 45 27 27 20 20 99 26 35 29 38 50 36 31 23 52 23
internal_value=-2.13293e-10 0.0898138 -0.0804667 -0.0998238 0.0505383 0.028665 -0.108473 -0.0119062 0.150238 0.0912944 0.012753 0.134343 -0.0922984 -0.0978258 0.108818 0.109016 -0.0122013 -0.0335549 -0.147312 -0.154055 -0.0436033 0.198469 0.148573 0.138698 -0.107475 -0.0304711 0.125528 0.124401 -0.0650468 -0.102207
internal_weight=1257 594 663 549 360 262 517 159 234 103 114 176 365 321 83 98 72 115 152 132 95 58 130 98 248 69 69 71 73 198
internal_count=1257 594 663 549 360 262 517 159 234 103 114 176 365 321 83 98 72 115 152 132 95 58 130 98 248 69 69 71 73 198
is_linear=0
shrinkage=0.03


Tree=14
num_leaves=31
num_cat=0
split_feature=1 1 8 8 8 8 5 1 8 5 8 5 8 8 5 5 8 1 0 5 8 8 8 5 1 1 0 8 1 1
split_gain=10410.8 1331.06 885.348 594.432 355.909 505.945 344.606 228.743 157.776 148.173 144.331 114.417 114.174 87.8955 87.4309 76.5347 72.5343 63.028 58.3467 51.4382 41.448 59.7317 35.901 29.8119 28.4813 26.42 25.4084 25.017 24.1396 21.0186
threshold=14.550000000000002 10.050000000000002 264.50000000000006 88.500000000000014 72.500000000000014 283.50000000000006 4.5000000000000009 5.0500000000000007 348.50000000000006 4.5000000000000009 88.500000000000014 4.5000000000000009 118.50000000000001 244.50000000000003 4.5000000000000009 4.5000000000000009 293.50000000000006 7.8500000000000005 13.950000000000001 3.5000000000000004 350.50000000000006 306.50000000000006 140.50000000000003 3.5000000000000004 7.9500000000000011 17.450000000000003 0.65000000000000002 38.500000000000007 11.450000000000001 8.9500000000000011
decision_type=2 2 2 2 2 2 2 2 2 2 2 2 2 2 2 2 2 2 2 2 2 2 2 2 2 2 2 2 2 2
left_child=1 7 3 -2 15 10 12 26 9 17 -6 16 -5 22 20 28 25 -9 -8 -12 21 -7 -14 -24 -11 -4 -1 -19 -3 -29
right_child=2 4 11 6 5 14 18 8 -10 24 19 -13 13 -15 -16 -17 -18 27 -20 -21 -22 -23 23 -25 -26 -27 -28 29 -30 -31
leaf_value=0.220683332733486 0.049249179298058152 0.13023076767580849 0.021739669814705848 -0.041952486717423729 0.032979786500737476 0.063534823339432486 -0.10876729478961543 0.17936016456948387 0.047913149233907465 0.12131366745285364 -0.01871950967518916 -0.051113374863976033 -0.076751510150292343 -0.05325730697384902 0.035671117864549164 0.050456859502010044 0.068004861664026972 0.16082210808992387 -0.15155417919158934 -0.069903107546269896 0.051990838766098016 0.12286359633718219 -0.099171097076856174 -0.12534665545638726 0.077547007659450176 -0.020630190538672297 0.17960778886621648 0.14385861843824385 0.097468733191490173 0.10284258049467335
leaf_weight=23 24 35 27 43 37 24 38 54 20 23 43 29 51 42 39 24 20 24 117 30 20 42 195 49 32 26 33 22 48 23
leaf_count=23 24 35 27 43 37 24 38 54 20 23 43 29 51 42 39 24 20 24 117 30 20 42 195 49 32 26 33 22 48 23
internal_value=2.17272e-10 0.0909229 -0.0819819 -0.096813 0.0522861 0.0316354 -0.103365 0.142946 0.127805 0.136782 -0.0152889 -0.000702005 -0.087988 -0.093862 0.0729288 0.0976406 0.0193244 0.155085 -0.141064 -0.0397539 0.0898247 0.101289 -0.099643 -0.104428 0.0958494 0.000954455 0.196478 0.136087 0.111284 0.122895
internal_weight=1257 596 661 559 342 235 535 254 198 178 110 102 380 337 125 107 73 123 155 73 86 66 295 244 55 53 56 69 83 45
internal_count=1257 596 661 559 342 235 535 254 198 178 110 102 380 337 125 107 73 123 155 73 86 66 295 244 55 53 56 69 83 45
is_linear=0
shrinkage=0.03


Tree=15
num_leaves=31
num_cat=0
split_feature=1 1 1 6 7 7 7 7 7 1 7 6 6 6 7 6 7 7 1 0 2 0 2 1 0 2 1 7 1 1
split_gain=9795.53 1252.4 806.762 334.491 254.562 320.069 287.406 237.075 268.642 215.224 185.973 128.942 80.1121 58.9497 50.4735 46.9314 43.7084 38.9043 35.6465 31.4301 30.5906 28.0295 27.0393 25.0766 23.9068 20.7645 23.5252 19.0571 15.9692 15.1158
threshold=14.550000000000002 10.050000000000002 17.550000000000004 1.0000000180025095e-35 2.5000000000000004 9.5000000000000018 3.5000000000000004 9.5000000000000018 3.5000000000000004 5.0500000000000007 8.5000000000000018 1.0000000180025095e-35 1.0000000180025095e-35 1.0000000180025095e-35 8.5000000000000018 1.0000000180025095e-35 2.5000000000000004 10.500000000000002 11.950000000000001 5.3500000000000005 5.8500000000000005 9.2500000000000018 11.450000000000001 6.9500000000000011 0.65000000000000002 10.15 27.850000000000005 4.5000000000000009 11.450000000000001 16.550000000000004
decision_type=2 2 2 2 2 2 2 2 2 2 2 2 2 2 2 2 2 2 2 2 2 2 2 2 2 2 2 2 2 2
left_child=1 9 7 10 13 6 18 8 -2 24 25 16 21 28 -5 27 23 -18 -6 -13 -8 -7 -9 -11 -1 -4 -27 -10 -3 -29
right_child=2 4 3 14 5 12 20 22 15 11 -12 19 -14 -15 -16 -17 17 -19 -20 -21 -22 -23 -24 -25 -26 26 -28 29 -30 -31
leaf_value=0.21406283482261326 0.035403717276122834 0.12870168115083988 -0.077124763152429027 -0.14915702645757556 0.07627319641113281 0.11172962044676145 -0.019588829417797649 0.0073392675525030572 -0.038593958034340674 0.18425934382847378 -0.040357988522624344 0.1056728792512739 0.034600984837430022 0.051566216741222887 -0.099489892504431979 -0.10197127211093902 0.089085396868841982 0.13853649469216664 0.030822559408843517 0.06212982923984528 -0.060135572222198418 0.074922549627721297 0.050634559487923982 0.14507638444705886 0.17421955639665776 -0.10340302583514427 -0.069992719207491186 -0.052181207968129049 0.098022404232540647 -0.08312204891443252
leaf_weight=23 27 26 42 113 25 27 33 37 29 21 67 37 39 20 22 30 21 45 41 25 34 60 20 49 33 196 21 27 37 30
leaf_count=23 27 26 42 113 25 27 33 37 29 21 67 37 39 20 22 30 21 45 41 25 34 60 20 49 33 196 21 27 37 30
internal_value=-8.01293e-12 0.0881952 -0.0795225 -0.101353 0.0507176 0.0360657 0.00360537 -0.0292039 -0.0498253 0.138657 -0.0849082 0.123971 0.0703293 0.0964385 -0.141063 -0.0696631 0.140317 0.122802 0.0480387 0.0881152 -0.0401648 0.0863454 0.0225306 0.156831 0.190584 -0.0964327 -0.10017 -0.0583928 0.110684 -0.0684659
internal_weight=1257 596 661 461 342 259 133 200 143 254 326 198 126 83 135 116 136 66 66 62 67 87 57 70 56 259 217 86 63 57
internal_count=1257 596 661 461 342 259 133 200 143 254 326 198 126 83 135 116 136 66 66 62 67 87 57 70 56 259 217 86 63 57
is_linear=0
shrinkage=0.03


Tree=16
num_leaves=31
num_cat=0
split_feature=3 3 8 8 8 8 8 5 8 8 8 5 5 8 8 7 5 5 8 8 3 7 8 5 5 5 8 5 5 8
split_gain=8426.25 1310.8 1113.45 613.331 435.159 496.95 348.218 301.28 169.9 140.522 114.455 81.7547 80.6705 74.7517 96.0306 69.893 58.3197 58.0658 51.2628 68.5173 51.1467 44.5458 46.1971 39.9413 34.6467 34.1798 27.0716 26.8281 26.4156 17.7829
threshold=4.3500000000000014 8.7500000000000018 266.50000000000006 92.500000000000014 46.500000000000007 301.50000000000006 86.500000000000014 4.5000000000000009 52.500000000000007 353.50000000000006 286.50000000000006 4.5000000000000009 4.5000000000000009 244.50000000000003 138.50000000000003 9.5000000000000018 3.5000000000000004 2.5000000000000004 319.50000000000006 338.50000000000006 14.400000000000002 8.5000000000000018 138.50000000000003 4.5000000000000009 2.5000000000000004 4.5000000000000009 116.50000000000001 3.5000000000000004 3.5000000000000004 110.50000000000001
decision_type=2 2 2 2 2 2 2 2 2 2 2 2 2 2 2 2 2 2 2 2 2 2 2 2 2 2 2 2 2 2
left_child=2 4 3 -1 28 6 12 13 20 17 24 18 -6 14 29 23 -12 -7 -10 -20 25 22 -9 26 -4 -3 -8 -16 -2 -5
right_child=1 8 10 7 5 9 15 21 11 -11 16 -13 -14 -15 27 -17 -18 -19 19 -21 -22 -23 -24 -25 -26 -27 -28 -29 -30 -31
leaf_value=0.036217530719004569 0.13249534107171573 0.16484516626054591 0.0042651775593941024 -0.035829073808022908 0.072550875445206955 0.13054851776844745 -0.016000048287212847 -0.11019526546651666 0.10314797796884302 0.014088923178613185 0.064260284259604908 0.069223766371607778 0.0064475278067402534 -0.047676399566063829 -0.093316889965172956 0.021626742403954267 0.004615493756532669 0.07928700612727986 0.18206414766311646 0.1075664999037981 0.20317622423171997 -0.09289056265354155 -0.15118177645134204 -0.070194685980677601 -0.044254885332451921 0.12477752261691623 -0.057297874331474305 -0.11791064321994781 0.092991531801223756 -0.068538507650104843
leaf_weight=32 39 66 26 21 54 37 50 33 43 20 36 30 24 44 198 20 25 43 25 20 23 20 99 28 27 27 20 50 25 52
leaf_count=32 39 66 26 21 54 37 50 33 43 20 36 30 24 44 198 20 25 43 25 20 23 20 99 28 27 27 20 50 25 52
internal_value=-2.98419e-10 0.0820606 -0.0735203 -0.0912363 0.0461309 0.030794 0.00302863 -0.0991251 0.137337 0.0852141 0.0117962 0.111992 0.0522114 -0.0843464 -0.0893729 -0.029482 0.0398157 0.102995 0.126572 0.148954 0.163119 -0.134613 -0.140935 -0.0399124 -0.0204526 0.153213 -0.0277994 -0.0982753 0.117064 -0.0591289
internal_weight=1257 594 663 549 360 296 196 517 234 100 114 118 78 365 321 118 61 80 88 45 116 152 132 98 53 93 70 248 64 73
internal_count=1257 594 663 549 360 296 196 517 234 100 114 118 78 365 321 118 61 80 88 45 116 152 132 98 53 93 70 248 64 73
is_linear=0
shrinkage=0.03


Tree=17
num_leaves=31
num_cat=0
split_feature=1 1 8 8 8 8 6 8 1 8 6 8 6 6 8 6 8 6 8 8 8 8 8 1 0 1 8 1 1 1
split_gain=8679.05 1114.35 745.099 500.153 301.823 425.869 286.163 205.281 216.632 118.759 101.823 95.868 81.442 74.3802 72.6048 64.6275 62.2505 58.9556 51.3162 37.0859 52.903 33.1614 32.7268 29.7715 28.2975 22.7873 21.1427 25.2319 20.614 20.1906
threshold=14.550000000000002 10.050000000000002 264.50000000000006 88.500000000000014 72.500000000000014 283.50000000000006 1.0000000180025095e-35 348.50000000000006 7.6500000000000012 88.500000000000014 1.0000000180025095e-35 118.50000000000001 1.0000000180025095e-35 1.0000000180025095e-35 240.50000000000003 1.0000000180025095e-35 293.50000000000006 1.0000000180025095e-35 122.50000000000001 350.50000000000006 308.50000000000006 144.50000000000003 240.50000000000003 4.2000000000000002 21.150000000000002 17.450000000000003 38.500000000000007 8.9500000000000011 11.450000000000001 12.65
decision_type=2 2 2 2 2 2 2 2 2 2 2 2 2 2 2 2 2 2 2 2 2 2 2 2 2 2 2 2 2 2
left_child=1 7 3 -2 15 9 11 8 17 -6 16 -5 26 19 21 28 25 23 -8 20 -7 -13 -20 -1 -23 -4 -10 -28 -3 -11
right_child=2 4 10 6 5 13 18 -9 12 29 -12 14 -14 -15 -16 -17 -18 -19 22 -21 -22 24 -24 -25 -26 -27 27 -29 -30 -31
leaf_value=0.21081970555441717 0.04552023499505594 0.11947738337516785 0.020888837472432191 -0.038272788975127904 0.029381494290522628 0.05856555390357971 -0.086381359479644079 0.040781559390681128 0.14881296025382146 -0.017161060450919741 -0.047845050672004966 -0.072500167233603349 0.07416874381212088 0.032168489485405953 -0.052864090434809705 0.046073290929198263 0.063701084062457086 0.1309524381160736 -0.14210467543222208 0.046329429477453235 0.11393517463672451 -0.10136241276029478 -0.10047100317478179 0.16988269451838819 -0.070043347001075743 -0.018460454227975927 0.13599875436379361 0.092862349437630692 0.089202211722731586 -0.049403773522512476
leaf_weight=21 24 35 27 43 37 25 22 21 27 29 29 63 39 39 51 24 20 30 113 20 41 193 20 67 30 26 26 23 48 44
leaf_count=21 24 35 27 43 37 25 22 21 27 29 29 63 39 39 51 24 20 30 113 20 41 193 20 67 30 26 26 23 48 44
internal_value=-1.68591e-10 0.0830171 -0.0748535 -0.0884592 0.0476652 0.0286482 -0.0944695 0.130617 0.138714 -0.0144029 -0.000288804 -0.0804567 0.109412 0.0665331 -0.0858392 0.0894315 0.0186034 0.167271 -0.128823 0.0821171 0.0929618 -0.0917194 -0.135844 0.179652 -0.0971491 0.00158541 0.127497 0.115751 0.101969 -0.036595
internal_weight=1257 596 661 559 342 235 535 254 233 110 102 380 115 125 337 107 73 118 155 86 66 286 133 88 223 53 76 49 83 73
internal_count=1257 596 661 559 342 235 535 254 233 110 102 380 115 125 337 107 73 118 155 86 66 286 133 88 223 53 76 49 83 73
is_linear=0
shrinkage=0.03


Tree=18
num_leaves=31
num_cat=0
split_feature=1 1 8 8 8 8 5 8 1 8 8 8 8 5 5 5 5 8 5 5 8 8 5 1 8 5 1 1 0 8
split_gain=8166.12 1048.84 701.749 477.706 307.617 407.108 270.332 220.167 151.724 125.445 102.638 98.1917 95.7324 74.0301 70.4415 63.3836 63.3497 60.9682 58.8336 52.6328 47.75 37.6197 37.6108 33.0312 30.853 29.238 26.6004 23.0811 22.7967 15.0319
threshold=14.550000000000002 9.5500000000000025 260.50000000000006 88.500000000000014 68.500000000000014 299.50000000000006 3.5000000000000004 348.50000000000006 7.1500000000000012 86.500000000000014 294.50000000000006 110.50000000000001 352.50000000000006 3.5000000000000004 4.5000000000000009 3.5000000000000004 4.5000000000000009 139.50000000000003 4.5000000000000009 2.5000000000000004 242.50000000000003 240.50000000000003 2.5000000000000004 17.450000000000003 144.50000000000003 4.5000000000000009 12.15 23.700000000000006 1.2500000000000002 46.500000000000007
decision_type=2 2 2 2 2 2 2 2 2 2 2 2 2 2 2 2 2 2 2 2 2 2 2 2 2 2 2 2 2 2
left_child=1 7 3 -2 15 9 11 8 16 22 18 -5 19 -10 -11 29 28 -8 23 -7 25 24 -6 -4 -13 -19 -21 -26 -1 -3
right_child=2 4 10 6 5 12 17 -9 13 14 -12 21 -14 -15 -16 -17 -18 20 -20 26 -22 -23 -24 -25 27 -27 -28 -29 -30 -31
leaf_value=0.20644541536058697 0.044154627963434903 0.11965425901634748 0.019697916626131958 -0.016948079916089775 0.06817484708768981 0.11307605000642629 -0.091118848080099638 0.035618963107466699 0.13764131832931001 -0.0059664952280786884 0.04881119769215584 -0.064557458676397797 0.016929431002248418 0.087751349508762358 -0.06289602316088147 0.060917942718817633 0.12560516733389634 -0.11386816537126582 -0.059011198282241821 0.090017282152175901 -0.088316203308105468 -0.048538054106757045 0.013199439030140639 -0.023747395239770409 -0.096969172246754165 -0.14274693779647349 0.047789980690476713 -0.074052077329764932 0.16970258526368576 0.090758652916321389
leaf_weight=21 24 43 28 25 21 39 59 20 59 71 25 60 22 49 27 39 26 47 25 25 25 32 24 36 120 96 29 59 55 26
leaf_count=21 24 43 28 25 21 39 59 20 59 71 25 60 22 49 27 39 26 47 25 25 25 32 24 36 120 96 29 59 55 26
internal_value=-1.05057e-10 0.0805265 -0.0726079 -0.0867193 0.0489783 0.0311837 -0.092725 0.130729 0.139788 -0.00261088 -0.00489793 -0.073837 0.0732066 0.115006 -0.0216512 0.0914876 0.166027 -0.117354 -0.0199848 0.0865194 -0.126568 -0.079085 0.0388546 -0.00474007 -0.083175 -0.133255 0.0673397 -0.0894155 0.179855 0.108766
internal_weight=1257 596 661 547 366 258 523 230 210 143 114 296 115 108 98 108 102 227 89 93 168 271 45 64 239 143 54 179 76 69
internal_count=1257 596 661 547 366 258 523 230 210 143 114 296 115 108 98 108 102 227 89 93 168 271 45 64 239 143 54 179 76 69
is_linear=0
shrinkage=0.03


Tree=19
num_leaves=31
num_cat=0
split_feature=1 1 8 8 8 8 5 8 1 8 5 5 8 5 5 8 8 5 8 8 5 1 8 8 5 8 1 1 1 1
split_gain=7683.5 987.77 660.595 442.848 267.567 381.459 261.03 181.823 192.109 106.86 95.0599 90.7482 88.8798 67.747 58.2663 53.8519 55.0423 51.7631 50.3186 49.9789 43.1332 35.739 32.88 46.8257 31.054 29.0296 26.6206 21.7299 19.2793 18.5236
threshold=14.550000000000002 10.050000000000002 264.50000000000006 88.500000000000014 72.500000000000014 283.50000000000006 3.5000000000000004 348.50000000000006 7.6500000000000012 88.500000000000014 3.5000000000000004 3.5000000000000004 110.50000000000001 4.5000000000000009 4.5000000000000009 128.50000000000003 246.50000000000003 4.5000000000000009 285.50000000000006 240.50000000000003 3.5000000000000004 16.350000000000005 350.50000000000006 306.50000000000006 4.5000000000000009 144.50000000000003 4.2000000000000002 23.250000000000004 11.450000000000001 12.050000000000002
decision_type=2 2 2 2 2 2 2 2 2 2 2 2 2 2 2 2 2 2 2 2 2 2 2 2 2 2 2 2 2 2
left_child=1 7 3 -2 14 9 12 8 17 -6 18 -10 -5 22 28 -8 24 26 -4 25 -11 -12 23 -7 -17 -14 -1 -27 -3 -25
right_child=2 4 10 6 5 13 15 -9 11 20 21 -13 19 -15 -16 16 -18 -19 -20 -21 -22 -23 -24 29 -26 27 -28 -29 -30 -31
leaf_value=0.19851171493530273 0.042829989297315477 0.11298855624880109 0.00074714240344131693 -0.016439637131989003 0.027710153708184086 0.054433256126940249 -0.082208219181214057 0.038378890029021673 0.12891530292897913 -0.015612080996466236 -0.0074235966056585313 0.075597866215477025 -0.062620734836906194 0.029980576026898163 0.042982849832624195 -0.10692583786116705 -0.075158412402326402 0.12340712499618531 0.056813470861315725 -0.044448116043582557 -0.06248192529770312 -0.062138507366180415 0.043952713474631311 0.12595899289304557 -0.13458265998722177 -0.094436118399788591 0.1598015975240451 -0.072549560070037836 0.083709853459149594 0.086067367672920225
leaf_weight=21 24 35 34 25 37 24 42 21 59 43 22 56 60 39 24 54 22 30 25 40 30 21 20 22 113 116 67 63 48 20
leaf_count=21 24 35 34 25 37 24 42 21 59 43 22 56 60 39 24 54 22 30 25 40 30 21 20 22 113 116 67 63 48 20
internal_value=1.57327e-11 0.0781107 -0.0704297 -0.0832406 0.0448272 0.0269219 -0.0888961 0.122926 0.130546 -0.0138227 -0.000220472 0.102952 -0.0706295 0.0627771 0.084152 -0.112935 -0.119764 0.157438 0.0245041 -0.0754852 -0.0348737 -0.0341448 0.07765 0.0878613 -0.12564 -0.0806797 0.169039 -0.086733 0.0960563 0.106963
internal_weight=1257 596 661 559 342 235 535 254 233 110 102 115 304 125 107 231 189 118 59 279 73 43 86 66 167 239 88 179 83 42
internal_count=1257 596 661 559 342 235 535 254 233 110 102 115 304 125 107 231 189 118 59 279 73 43 86 66 167 239 88 179 83 42
is_linear=0
shrinkage=0.03


Tree=20
num_leaves=31
num_cat=0
split_feature=0 0 8 8 8 8 8 5 8 8 8 8 8 8 5 7 8 8 5 5 5 7 8 5 5 2 5 8 5 0
split_gain=6622.55 1035.05 874.376 476.655 352.975 403.349 264.316 239.742 138.416 122.211 91.4108 78.9989 113.376 72.596 71.0359 63.5084 59.1073 77.5241 47.6446 43.2186 37.4116 35.1378 36.005 32.0525 29.4504 23.5158 23.4075 22.764 22.04 15.5075
threshold=11.15 6.7500000000000009 266.50000000000006 92.500000000000014 46.500000000000007 302.50000000000006 86.500000000000014 4.5000000000000009 26.500000000000004 353.50000000000006 286.50000000000006 346.50000000000006 321.50000000000006 52.500000000000007 4.5000000000000009 9.5000000000000018 244.50000000000003 131.50000000000003 3.5000000000000004 2.5000000000000004 2.5000000000000004 8.5000000000000018 138.50000000000003 4.5000000000000009 2.5000000000000004 5.9500000000000011 3.5000000000000004 116.50000000000001 3.5000000000000004 9.6500000000000004
decision_type=2 2 2 2 2 2 2 2 2 2 2 2 2 2 2 2 2 2 2 2 2 2 2 2 2 2 2 2 2 2
left_child=1 8 3 -2 25 6 14 16 20 19 24 12 13 -10 29 23 17 -5 -12 -7 -1 22 -9 27 -4 -3 -19 -8 -15 -6
right_child=2 4 10 7 5 9 15 21 11 -11 18 -13 -14 28 -16 -17 -18 26 -20 -21 -22 -23 -24 -25 -26 -27 -28 -29 -30 -31
leaf_value=0.18812155294418334 0.031481333248084407 0.084729111716151231 0.0043950929492712022 -0.048050513830414768 0.079942219810826429 0.11787116765975951 -0.014243269707262515 -0.097965914336117829 0.12739768335452448 0.010626850225031376 0.057560948071380458 0.054668881671333852 0.1636764249380897 0.094533087103627608 0.0024199311435222624 0.020488865761594338 -0.042040996768257829 -0.081652505717107235 0.0036506444692611696 0.073076349496841428 0.14110916788761432 -0.082433259844779977 -0.13414978157390248 -0.063041704898434026 -0.040338751789596339 0.12125981272969925 -0.10413467157345552 -0.052113190636038774 0.058284993148767027 0.047766851759873899
leaf_weight=25 32 29 26 59 28 36 50 33 52 20 36 22 34 36 24 22 44 210 25 42 39 20 99 28 27 35 52 20 26 26
leaf_count=25 32 29 26 59 28 36 50 33 52 20 36 22 34 36 24 22 44 210 25 42 39 20 99 28 27 35 52 20 26 26
internal_value=-1.95422e-10 0.0727495 -0.0651783 -0.0808776 0.040822 0.027009 0.00237151 -0.0878321 0.121869 0.0767868 0.0104262 0.107712 0.115596 0.101257 0.0453641 -0.0255737 -0.0746488 -0.0791184 0.0354666 0.0937509 0.159473 -0.119489 -0.125104 -0.0359142 -0.0183938 0.104707 -0.0861146 -0.0250632 0.0793323 0.0644504
internal_weight=1257 594 663 549 360 296 198 517 234 98 114 170 148 114 78 120 365 321 61 78 64 152 132 98 53 64 262 70 62 54
internal_count=1257 594 663 549 360 296 198 517 234 98 114 170 148 114 78 120 365 321 61 78 64 152 132 98 53 64 262 70 62 54
is_linear=0
shrinkage=0.03


Tree=21
num_leaves=31
num_cat=0
split_feature=1 1 1 5 5 7 7 1 7 1 7 7 7 5 5 7 7 7 7 5 3 7 5 1 5 2 7 3 3 3
split_gain=6807.22 878.956 575.759 236.224 214.567 165.585 182.213 135.092 128.529 125.905 115.314 118.924 163.602 85.2229 55.5621 40.2375 76.0644 39.4406 32.6883 32.5742 32.5501 26.1525 24.2347 19.811 19.2788 15.8638 14.9446 14.7582 13.3732 13.1363
threshold=14.550000000000002 9.5500000000000025 17.550000000000004 4.5000000000000009 3.5000000000000004 9.5000000000000018 3.5000000000000004 5.0500000000000007 8.5000000000000018 12.65 2.5000000000000004 9.5000000000000018 3.5000000000000004 4.5000000000000009 3.5000000000000004 2.5000000000000004 10.500000000000002 8.5000000000000018 8.5000000000000018 4.5000000000000009 6.2500000000000009 1.5000000000000002 3.5000000000000004 8.7500000000000018 3.5000000000000004 3.6500000000000008 2.5000000000000004 6.2500000000000009 3.9500000000000006 0.95000000000000029
decision_type=2 2 2 2 2 2 2 2 2 2 2 2 2 2 2 2 2 2 2 2 2 2 2 2 2 2 2 2 2 2
left_child=1 7 5 8 10 6 -2 24 22 15 -3 12 27 21 -7 -6 -17 -11 -5 28 -13 -9 29 25 -1 -23 -15 -12 -8 -4
right_child=2 4 3 18 9 14 19 13 -10 17 11 20 -14 26 -16 16 -18 -19 -20 -21 -22 23 -24 -25 -26 -27 -28 -29 -30 -31
leaf_value=0.17364194737161909 0.029174889400601388 0.10011630917417591 -0.078416856709548399 -0.12461888665646577 0.073071597125381221 0.045632726972980889 -0.055753365803509952 0.1442504003740126 -0.033878297773328847 -0.033440932952798902 0.050498814327376226 0.065620893403044278 -0.016685733906016118 0.089791306072267985 -0.014057458286359906 -0.0036902146572794984 0.060246896784413938 0.017330363392829892 -0.084648941321806476 -0.084271726515144113 0.1097540933745248 0.1108426875605228 -0.097390963748349976 0.087554169432683418 0.13728293018681662 0.14274324712157249 0.058139983910322185 0.086507322840392586 -0.029994591308327823 -0.055168933455739172
leaf_weight=35 27 58 175 113 24 32 60 31 67 40 21 53 41 29 25 34 33 21 22 30 21 47 59 22 21 20 25 20 26 25
leaf_count=35 27 58 175 113 24 32 60 31 67 40 21 53 41 29 25 34 33 21 22 30 21 47 59 22 21 20 25 20 26 25
internal_value=-4.6505e-11 0.0735218 -0.0662919 -0.0847338 0.0446412 -0.0237834 -0.0410174 0.119479 -0.0709144 0.0173862 0.064 0.0505721 0.0256891 0.106436 0.0194528 0.0397406 0.0278012 -0.0159623 -0.118105 -0.0573553 0.0781452 0.12052 -0.0804951 0.112255 0.160007 0.120365 0.0751379 0.0680639 -0.0479658 -0.0755109
internal_weight=1257 596 661 461 366 200 143 230 326 152 214 156 82 174 57 91 67 61 135 116 74 120 259 89 56 67 54 41 86 200
internal_count=1257 596 661 461 366 200 143 230 326 152 214 156 82 174 57 91 67 61 135 116 74 120 259 89 56 67 54 41 86 200
is_linear=0
shrinkage=0.03


Tree=22
num_leaves=31
num_cat=0
split_feature=1 1 8 8 8 8 6 8 1 8 8 8 6 8 8 6 6 6 8 8 6 1 1 1 2 2 1 8 1 1
split_gain=6404.91 827.426 556.557 378.604 227.175 321.467 205.279 160.817 163.989 91.2688 84.888 78.5182 63.792 59.5573 59.8499 48.8554 48.8331 45.3065 44.0313 41.889 38.7036 28.3713 23.1638 20.9475 19.7213 18.632 18.8662 18.4944 17.0882 15.0799
threshold=14.550000000000002 10.050000000000002 260.50000000000006 88.500000000000014 72.500000000000014 283.50000000000006 1.0000000180025095e-35 348.50000000000006 7.6500000000000012 90.500000000000014 295.50000000000006 131.50000000000003 1.0000000180025095e-35 352.50000000000006 308.50000000000006 1.0000000180025095e-35 1.0000000180025095e-35 1.0000000180025095e-35 240.50000000000003 137.50000000000003 1.0000000180025095e-35 17.450000000000003 4.2000000000000002 27.850000000000005 5.8500000000000005 4.9500000000000011 8.9500000000000011 106.50000000000001 11.450000000000001 11.750000000000002
decision_type=2 2 2 2 2 2 2 2 2 2 2 2 2 2 2 2 2 2 2 2 2 2 2 2 2 2 2 2 2 2
left_child=1 7 3 -2 16 9 11 8 17 -6 15 27 25 14 -7 21 28 22 23 -8 29 -4 -1 -13 -11 26 -10 -5 -3 -16
right_child=2 4 10 6 5 13 19 -9 12 24 -12 18 -14 -15 20 -17 -18 -19 -20 -21 -22 -23 -24 -25 -26 -27 -28 -29 -30 -31
leaf_value=0.18269134180886404 0.039640329387038944 0.10392797500746589 0.018967169671608455 -0.021953012757003308 0.022401493390704071 0.035642980219175419 -0.084137231837958099 0.032819619998335839 0.11629213248529742 -0.01784064733149374 0.047489758525853569 -0.084103122461524044 0.062813728233942615 0.012463711689818989 0.1181118083000183 -0.051773800815527259 0.039399291346780954 0.11250751501321793 -0.048118535587791257 -0.12046811774502629 0.050993124165318225 -0.020904762415836251 0.14658191954911642 -0.052126208066940301 -0.049921081410987035 0.13404967614582608 0.080863155070692291 -0.053486173747384805 0.076363205825909969 0.083301263377070431
leaf_weight=21 24 35 29 26 41 36 38 21 31 34 23 236 39 22 21 26 24 30 41 115 22 36 67 20 35 21 24 47 48 24
leaf_count=21 24 35 29 26 41 36 38 21 31 34 23 236 39 22 21 26 24 30 41 115 22 36 67 20 35 21 24 47 48 24
internal_value=1.27851e-10 0.0713161 -0.0643032 -0.0768703 0.0408535 0.024355 -0.0822168 0.112333 0.119499 -0.0130487 -0.00400331 -0.0701307 0.0940048 0.0572702 0.0668405 -0.017018 0.0770887 0.144345 -0.0769822 -0.111445 0.0836034 -0.00311575 0.155199 -0.0816049 -0.0341133 0.110011 0.100832 -0.0422552 0.0879869 0.0995462
internal_weight=1257 596 661 547 342 235 523 254 233 110 114 370 115 125 103 91 107 118 297 153 67 65 88 256 69 76 55 73 83 45
internal_count=1257 596 661 547 342 235 523 254 233 110 114 370 115 125 103 91 107 118 297 153 67 65 88 256 69 76 55 73 83 45
is_linear=0
shrinkage=0.03


Tree=23
num_leaves=31
num_cat=0
split_feature=0 0 8 8 8 8 8 5 8 8 8 5 5 5 7 8 8 8 8 8 8 5 0 5 5 5 2 0 8 8
split_gain=5524.95 869.178 733.5 398.638 299.741 341.639 223.009 204.662 118.898 110.076 78.0017 61.968 58.4653 55.5828 53.0906 49.1495 51.9666 39.6358 47.5885 38.089 42.1221 36.9699 36.1942 28.3459 25.4845 22.6761 21.3292 20.9944 20.0699 18.6677
threshold=11.15 6.7500000000000009 266.50000000000006 92.500000000000014 46.500000000000007 302.50000000000006 86.500000000000014 3.5000000000000004 52.500000000000007 353.50000000000006 301.50000000000006 4.5000000000000009 4.5000000000000009 4.5000000000000009 9.5000000000000018 118.50000000000001 240.50000000000003 319.50000000000006 338.50000000000006 250.50000000000003 139.50000000000003 2.5000000000000004 1.1000000000000003 4.5000000000000009 4.5000000000000009 4.5000000000000009 5.9500000000000011 14.15 116.50000000000001 144.50000000000003
decision_type=2 2 2 2 2 2 2 2 2 2 2 2 2 2 2 2 2 2 2 2 2 2 2 2 2 2 2 2 2 2
left_child=1 8 3 -2 26 6 11 15 22 21 13 -6 17 27 23 -5 29 -10 -19 20 -9 -7 -1 28 -22 -24 -3 -4 -8 -17
right_child=2 4 10 7 5 9 14 19 12 -11 -12 -13 -14 -15 -16 16 -18 18 -20 -21 24 -23 25 -25 -26 -27 -28 -29 -30 -31
leaf_value=0.16672455124233079 0.028841480151750146 0.077034646240544735 0.021186960957013071 -0.019369181602128912 0.05910391830735736 0.10868182251850764 -0.012972568094730377 -0.082184141768285868 0.081990043430827386 0.0074840499535202979 0.049438041171524671 0.0011677326355129479 0.054090293034911155 -0.049275558739900589 0.018233468548225409 -0.056297309568950106 -0.036367998133812633 0.14986165122985839 0.087775672832038257 -0.063117364474705284 -0.096069043454001926 0.067251634640353067 0.13416898163882168 -0.05884720138141087 -0.12199986820082064 0.10153327782948812 0.11182554735456193 -0.01529914272525771 -0.048531034380197527 -0.077208172039212555
leaf_weight=23 32 29 40 21 54 36 50 52 43 20 32 24 30 20 22 49 42 25 20 21 51 42 66 28 103 27 35 22 20 178
leaf_count=23 32 29 40 21 54 36 50 52 43 20 32 24 30 20 22 49 42 25 20 21 51 42 66 28 103 27 35 22 20 178
internal_value=-8.91091e-11 0.0664479 -0.0595325 -0.0739116 0.0371903 0.0244615 0.00178688 -0.0802715 0.11146 0.0702734 0.00971407 0.0412774 0.0902571 -0.00578797 -0.023882 -0.0635718 -0.0670226 0.102587 0.122268 -0.101606 -0.10553 0.0863733 0.133028 -0.0333364 -0.113412 0.124694 0.0960609 0.00824028 -0.0231321 -0.0726944
internal_weight=1257 594 663 549 360 296 198 517 234 98 114 78 118 82 120 290 269 88 45 227 206 78 116 98 154 93 64 62 70 227
internal_count=1257 594 663 549 360 296 198 517 234 98 114 78 118 82 120 290 269 88 45 227 206 78 116 98 154 93 64 62 70 227
is_linear=0
shrinkage=0.03


Tree=24
num_leaves=31
num_cat=0
split_feature=1 1 8 8 8 8 8 5 5 5 8 8 8 1 8 5 5 5 1 7 8 8 7 8 8 8 1 5 1 1
split_gain=5671.85 737.561 494.111 336.545 220.328 293.329 168.055 166.636 110.222 102.377 82.5126 79.0884 76.1145 74.5594 71.1751 45.8969 44.938 37.3374 34.3112 30.3388 32.1406 27.2605 25.7289 35.6643 24.6919 28.7698 21.5582 20.8823 17.5675 15.9183
threshold=14.550000000000002 9.5500000000000025 260.50000000000006 106.50000000000001 68.500000000000014 301.50000000000006 348.50000000000006 3.5000000000000004 4.5000000000000009 4.5000000000000009 88.500000000000014 352.50000000000006 295.50000000000006 6.9500000000000011 88.500000000000014 3.5000000000000004 3.5000000000000004 1.5000000000000002 7.6500000000000012 10.500000000000002 38.500000000000007 133.50000000000003 8.5000000000000018 139.50000000000003 240.50000000000003 138.50000000000003 18.200000000000006 4.5000000000000009 24.150000000000002 12.15
decision_type=2 2 2 2 2 2 2 2 2 2 2 2 2 2 2 2 2 2 2 2 2 2 2 2 2 2 2 2 2 2
left_child=1 6 3 10 15 9 8 24 13 14 -2 17 16 -1 -6 -3 26 -7 -10 20 -15 -16 23 -9 25 -5 -4 -25 -27 -19
right_child=2 4 12 7 5 11 -8 22 18 -11 -12 -13 -14 19 21 -17 -18 29 -20 -21 -22 -23 -24 27 -26 28 -28 -29 -30 -31
leaf_value=0.15297667831182479 0.037390264160931108 0.091334346532821645 0.018779938559979198 -0.048283682025969027 0.046760616592458774 0.1044424393441942 0.026114511955529451 -0.080304857457793033 0.10602724514901637 -0.043148483837605452 -0.03403303661912277 0.01147415058179335 0.045064385550339585 0.12577058136463165 -0.016522973918169735 0.050618068028169753 -0.040362124442337798 0.078390136587208711 0.061022035715080074 0.14229993689060211 0.080143474773927165 0.024918717429041861 -0.070038836652582342 -0.095178777426481245 -0.040530141033232207 -0.079387214538242129 -0.020318265076388013 -0.11933080563739855 -0.05910790018315585 0.047924516661600629
leaf_weight=72 24 69 30 50 37 27 20 43 30 40 37 22 23 24 50 39 39 29 31 20 33 20 22 48 32 140 22 98 53 33
leaf_count=72 24 69 30 50 37 27 20 43 30 40 37 22 23 24 50 39 39 29 31 20 33 20 22 48 32 140 22 98 53 33
internal_value=1.42632e-10 0.067111 -0.0605116 -0.0723526 0.0406552 0.0255955 0.10921 -0.0806894 0.117124 -0.00220116 -0.00593207 0.0624072 -0.00369514 0.131031 0.0131062 0.0766312 -0.016019 0.0749974 0.0831557 0.110509 0.0993549 -0.00468249 -0.100744 -0.104318 -0.0653021 -0.0685643 0.00223839 -0.11139 -0.0738183 0.0621746
internal_weight=1257 596 661 547 366 258 230 486 210 147 61 111 114 149 107 108 91 89 61 77 57 70 211 189 275 243 52 146 193 62
internal_count=1257 596 661 547 366 258 230 486 210 147 61 111 114 149 107 108 91 89 61 77 57 70 211 189 275 243 52 146 193 62
is_linear=0
shrinkage=0.03


Tree=25
num_leaves=31
num_cat=0
split_feature=1 1 8 8 8 8 5 8 1 8 5 5 8 5 5 5 5 8 7 8 8 5 1 8 1 8 5 1 1 1
split_gain=5336.64 694.525 465.388 311.402 191.003 270.273 186.229 137.98 138.191 77.6939 72.195 68.494 66.9395 53.7863 41.6708 38.3891 38.3089 38.2273 40.5301 37.0282 34.8061 32.9992 28.5833 24.8289 33.6026 21.137 20.9494 20.552 19.4004 15.4092
threshold=14.550000000000002 10.050000000000002 264.50000000000006 88.500000000000014 72.500000000000014 283.50000000000006 3.5000000000000004 348.50000000000006 7.6500000000000012 90.500000000000014 3.5000000000000004 3.5000000000000004 110.50000000000001 4.5000000000000009 4.5000000000000009 3.5000000000000004 4.5000000000000009 128.50000000000003 8.5000000000000018 285.50000000000006 240.50000000000003 3.5000000000000004 16.350000000000005 350.50000000000006 11.950000000000001 144.50000000000003 4.5000000000000009 4.2000000000000002 23.250000000000004 11.450000000000001
decision_type=2 2 2 2 2 2 2 2 2 2 2 2 2 2 2 2 2 2 2 2 2 2 2 2 2 2 2 2 2 2
left_child=1 7 3 -2 14 9 12 8 16 21 19 -10 -5 23 29 -11 27 -8 26 -4 25 -6 -12 24 -7 -14 -19 -1 -27 -3
right_child=2 4 10 6 5 13 17 -9 11 15 22 -13 20 -15 -16 -17 -18 18 -20 -21 -22 -23 -24 -25 -26 28 -28 -29 -30 -31
leaf_value=0.16799891131264821 0.036268555819988252 0.095618892022541577 0.0014008565312799285 -0.011734409936517476 0.048050669699907296 0.10268418073654174 -0.068607714122959546 0.029024606559957773 0.10846718600240804 -0.013729513703978487 -0.0054338828923011367 0.062146355972758367 -0.051901689767837524 0.023018502237705084 0.035597975691780442 -0.059579902854230669 0.10284642576426267 -0.090303497246976158 -0.065464797501380623 0.049496311674267053 -0.0370755494646728 -0.0057936761741127288 -0.054365590981074741 0.036210769414901735 0.058185296218310076 -0.079755167023375123 -0.11326321929151362 0.13398609168493925 -0.059075028584116979 0.069443377726711331
leaf_weight=21 24 35 34 25 20 24 42 21 59 42 22 56 60 39 24 27 30 53 26 25 40 21 21 20 42 116 110 67 63 48
leaf_count=21 24 35 34 25 20 24 42 21 59 42 22 56 60 39 24 27 30 53 26 25 40 21 21 20 42 116 110 67 63 48
internal_value=-8.7042e-11 0.0650976 -0.0586962 -0.069449 0.0371885 0.0220604 -0.0741915 0.102676 0.109314 -0.0122359 0.000233471 0.085911 -0.0587625 0.0522411 0.070414 -0.031671 0.132122 -0.0944963 -0.100249 0.0217803 -0.0629765 0.0204719 -0.0293308 0.0654932 0.0743667 -0.0673114 -0.105798 0.142103 -0.0724767 0.0804812
internal_weight=1257 596 661 559 342 235 535 254 233 110 102 115 304 125 107 69 118 231 189 59 279 41 43 86 66 239 163 88 179 83
internal_count=1257 596 661 559 342 235 535 254 233 110 102 115 304 125 107 69 118 231 189 59 279 41 43 86 66 239 163 88 179 83
is_linear=0
shrinkage=0.03


Tree=26
num_leaves=31
num_cat=0
split_feature=0 0 8 8 8 8 5 8 8 8 5 5 5 8 8 7 8 8 8 5 5 5 5 8 8 8 0 5 0 8
split_gain=4613.03 727.949 614.187 321.892 256.784 290.616 192.055 185.084 102.959 95.6107 60.7594 59.5 53.2618 49.2026 62.782 44.6241 37.5124 35.2098 35.2745 31.4464 29.1465 23.9026 23.7741 18.1771 37.067 17.84 15.9998 15.0914 14.0034 13.6004
threshold=11.15 6.7500000000000009 271.50000000000006 88.500000000000014 46.500000000000007 302.50000000000006 3.5000000000000004 86.500000000000014 26.500000000000004 353.50000000000006 3.5000000000000004 3.5000000000000004 4.5000000000000009 244.50000000000003 131.50000000000003 9.5000000000000018 298.50000000000006 250.50000000000003 128.50000000000003 2.5000000000000004 2.5000000000000004 4.5000000000000009 4.5000000000000009 320.50000000000006 62.500000000000007 116.50000000000001 3.6500000000000008 3.5000000000000004 21.150000000000002 112.50000000000001
decision_type=2 2 2 2 2 2 2 2 2 2 2 2 2 2 2 2 2 2 2 2 2 2 2 2 2 2 2 2 2 2
left_child=1 8 3 -2 27 7 13 12 20 19 23 16 -6 14 29 22 -4 18 -8 -7 -1 -20 25 24 -10 -9 -12 -3 -16 -5
right_child=2 4 11 6 5 9 17 15 10 -11 26 -13 -14 -15 28 -17 -18 -19 21 -21 -22 -23 -24 -25 -26 -27 -28 -29 -30 -31
leaf_value=0.15962863082885742 0.032589051465370826 0.10009437863643353 0.016235495529603215 -0.011049952980014495 0.05375035994582706 0.099992393950621289 -0.069369183381398511 -0.011881439564516767 0.11201646745204925 0.0058943786770105358 0.09061291927099227 -0.01422734245005995 3.8044420070946212e-05 -0.027453761392313501 -0.070874612073209831 0.016474212177775123 0.066555319815874092 -0.05866851142644882 -0.085968958905764975 0.061782296906624512 0.11813300444529606 -0.10986901144359422 -0.054168318392974986 0.12279331280426546 0.06566779429558664 -0.045406390741467476 0.058771661113263395 0.070235526645183566 -0.04606825613457223 -0.043689829624361458
leaf_weight=25 28 39 40 20 54 36 36 50 44 20 20 40 24 46 187 22 20 25 56 42 39 115 28 33 24 20 49 25 23 27
leaf_count=25 28 39 40 20 54 36 36 50 44 20 20 40 24 46 187 22 20 25 56 42 39 115 28 33 24 20 49 25 23 27
internal_value=2.02824e-11 0.060717 -0.054398 -0.0665672 0.0339416 0.0221602 -0.0717567 0.00124723 0.10191 0.064413 0.0897 0.0141143 0.0372235 -0.0560284 -0.061143 -0.0221373 0.0330088 -0.0922983 -0.0963598 0.0794177 0.134342 -0.102042 -0.0308052 0.104524 0.0956581 -0.02146 0.068001 0.0884308 -0.0681577 -0.0298005
internal_weight=1257 594 663 563 360 296 535 198 234 98 170 100 78 303 257 120 60 232 207 78 64 171 98 101 68 70 69 64 210 47
internal_count=1257 594 663 563 360 296 535 198 234 98 170 100 78 303 257 120 60 232 207 78 64 171 98 101 68 70 69 64 210 47
is_linear=0
shrinkage=0.03


Tree=27
num_leaves=31
num_cat=0
split_feature=1 1 1 8 8 8 8 5 8 8 8 8 5 5 8 1 5 8 5 5 5 8 5 8 5 1 5 1 5 8
split_gain=4736.29 718.956 393.928 175.01 217.029 171.387 176.359 167.33 118.072 92.5237 92.4532 88.6498 55.7624 44.0289 43.6351 41.9578 41.3135 38.3397 36.6391 33.2797 30.5677 27.6727 27.2769 21.9373 19.8772 19.566 19.0709 17.8154 16.2094 15.1244
threshold=13.250000000000002 17.550000000000004 8.4500000000000011 294.50000000000006 86.500000000000014 68.500000000000014 299.50000000000006 4.5000000000000009 353.50000000000006 346.50000000000006 244.50000000000003 256.50000000000006 4.5000000000000009 3.5000000000000004 118.50000000000001 6.9500000000000011 3.5000000000000004 90.500000000000014 3.5000000000000004 3.5000000000000004 3.5000000000000004 128.50000000000003 2.5000000000000004 244.50000000000003 2.5000000000000004 27.850000000000005 3.5000000000000004 10.750000000000002 3.5000000000000004 46.500000000000007
decision_type=2 2 2 2 2 2 2 2 2 2 2 2 2 2 2 2 2 2 2 2 2 2 2 2 2 2 2 2 2 2
left_child=2 3 9 4 24 13 16 10 22 12 21 14 15 27 19 -1 17 -7 -5 -6 -13 -3 -8 -9 -2 26 -23 -4 -16 -15
right_child=1 7 5 18 11 6 8 23 -10 -11 -12 20 -14 29 28 -17 -18 -19 -20 -21 -22 25 -24 -25 -26 -27 -28 -29 -30 -31
leaf_value=0.14069352633516552 0.055301062979481432 -0.038447458076601222 0.10724921700201537 0.059544100686907769 -0.013006523080954424 0.055040318101644517 0.096975632111231488 -0.10428587194565123 -0.003883187904953957 0.048489747217723304 -0.027218485511266266 0.019950456902957877 0.086550386300267179 0.069582456683062691 -0.05623580187702408 0.10257681570402007 -0.01696246561678973 0.0010482752862675437 0.0089221116817894981 -0.056109996464635645 -0.025624030640141831 -0.068553955611392589 0.061940510441859567 -0.071542045338587323 0.017195066548883916 -0.042146883845329282 -0.090530709902445466 0.07873583296450172 -0.088015862524509422 0.036520651856437318
leaf_weight=71 22 27 38 31 38 20 36 113 20 21 65 26 43 33 52 41 44 29 22 28 27 169 45 22 28 20 45 41 20 20
leaf_count=71 22 27 38 31 38 20 36 113 20 21 65 26 43 33 52 41 44 29 22 28 27 169 45 22 28 20 45 41 20 20
internal_value=2.08381e-11 -0.0474844 0.0714158 -0.0108259 -0.0216803 0.0518893 0.0339466 -0.0708632 0.0613939 0.107584 -0.0592323 -0.0362463 0.115591 0.0782596 -0.0489124 0.12674 0.00413826 0.0230858 0.0385312 -0.0312928 -0.00326673 -0.0672051 0.0775117 -0.0989498 0.0339617 -0.0705232 -0.0731752 0.0924511 -0.0650636 0.0571063
internal_weight=1257 755 502 294 241 326 194 461 101 176 326 191 155 132 138 112 93 49 53 66 53 261 81 135 50 234 214 79 72 53
internal_count=1257 755 502 294 241 326 194 461 101 176 326 191 155 132 138 112 93 49 53 66 53 261 81 135 50 234 214 79 72 53
is_linear=0
shrinkage=0.03


Tree=28
num_leaves=31
num_cat=0
split_feature=0 0 8 8 8 5 8 7 8 8 8 8 5 8 8 5 8 8 0 5 5 5 5 8 8 8 8 5 5 8
split_gain=4091.71 832.778 426.512 258.744 380.123 144.555 123.092 97.3795 109.258 78.9674 68.7947 65.9644 57.7995 55.4932 55.0954 54.0063 37.7814 32.9009 30.5026 30.2774 28.2169 27.8032 27.2876 23.4403 20.729 20.5864 17.3589 17.2323 17.1433 12.3619
threshold=12.15 7.1500000000000012 266.50000000000006 76.500000000000014 287.50000000000006 4.5000000000000009 52.500000000000007 10.500000000000002 348.50000000000006 90.500000000000014 74.500000000000014 118.50000000000001 4.5000000000000009 352.50000000000006 306.50000000000006 4.5000000000000009 240.50000000000003 286.50000000000006 1.1000000000000003 3.5000000000000004 2.5000000000000004 3.5000000000000004 4.5000000000000009 242.50000000000003 138.50000000000003 46.500000000000007 118.50000000000001 2.5000000000000004 3.5000000000000004 144.50000000000003
decision_type=2 2 2 2 2 2 2 2 2 2 2 2 2 2 2 2 2 2 2 2 2 2 2 2 2 2 2 2 2 2
left_child=1 6 5 15 9 11 18 10 -9 20 21 -2 17 14 -6 25 28 -4 -1 26 -5 -8 -16 24 -7 -3 -11 -20 29 -13
right_child=2 3 12 4 13 23 7 8 -10 19 -12 16 -14 -15 22 -17 -18 -19 27 -21 -22 -23 -24 -25 -26 -27 -28 -29 -30 -31
leaf_value=0.14541870925737463 -0.012896420239255978 0.086688968215851064 -0.0032524884549471047 0.040641865175217388 0.025289678549902005 -0.07624824580219057 0.088448586028355813 0.12098290608209722 0.038250244572758677 -0.0083945867028087373 0.002344210950125541 -0.048186373546603135 -0.041925699072224751 0.0027522208839654925 0.08634136193990706 0.028636272784582723 -0.038630299222469328 0.038536025699228052 0.12155593361173359 -0.049763807606584623 -0.008080800233975699 0.042624753845686258 0.047736662222932158 -0.065223062038421625 -0.10596856768598262 0.057407542694360013 -0.038158684095432015 0.096135277811970024 -0.082139263517326783 -0.066662258668399185
leaf_weight=23 26 47 39 20 33 27 26 51 20 45 21 40 21 20 45 34 50 30 42 53 23 22 26 21 97 40 29 56 54 176
leaf_count=23 26 47 39 20 33 27 26 51 20 45 21 40 21 20 45 34 50 30 42 53 23 22 26 21 97 40 29 56 54 176
internal_value=-3.62735e-10 0.0501788 -0.0583836 0.0237725 0.0085757 -0.0693884 0.092166 0.0730126 0.0976779 -0.020558 0.0476324 -0.0588507 0.00165327 0.0485171 0.057318 0.0606968 -0.0625845 0.0149164 0.114327 -0.0324554 0.0145809 0.067446 0.0722044 -0.0945334 -0.0994972 0.0732262 -0.0200589 0.10703 -0.0670205 -0.0632408
internal_weight=1257 676 581 415 294 491 261 140 71 170 69 346 90 124 104 121 320 69 121 127 43 48 71 145 124 87 74 98 270 216
internal_count=1257 676 581 415 294 491 261 140 71 170 69 346 90 124 104 121 320 69 121 127 43 48 71 145 124 87 74 98 270 216
is_linear=0
shrinkage=0.03


Tree=29
num_leaves=31
num_cat=0
split_feature=1 1 1 8 8 8 8 6 8 8 8 6 6 6 8 1 6 6 8 7 6 8 8 7 1 1 8 0 8 8
split_gain=4199.7 637.768 350.086 156.747 227.847 151.803 154.927 148.507 105.449 82.8807 81.5486 51.0982 48.4462 38.4482 47.8404 38.0327 33.2699 28.9824 25.7899 39.7877 24.8262 24.4893 22.1683 19.0996 18.5661 16.2897 14.1861 13.0055 12.9252 12.3437
threshold=13.250000000000002 17.550000000000004 8.4500000000000011 279.50000000000006 86.500000000000014 68.500000000000014 299.50000000000006 1.0000000180025095e-35 353.50000000000006 346.50000000000006 244.50000000000003 1.0000000180025095e-35 1.0000000180025095e-35 1.0000000180025095e-35 88.500000000000014 6.9500000000000011 1.0000000180025095e-35 1.0000000180025095e-35 162.50000000000003 4.5000000000000009 1.0000000180025095e-35 128.50000000000003 301.50000000000006 8.5000000000000018 27.850000000000005 10.750000000000002 330.50000000000006 1.2500000000000002 142.50000000000003 142.50000000000003
decision_type=2 2 2 2 2 2 2 2 2 2 2 2 2 2 2 2 2 2 2 2 2 2 2 2 2 2 2 2 2 2
left_child=2 3 9 4 -2 17 13 10 20 11 21 15 18 14 -7 27 22 25 19 -6 26 -3 -5 28 -23 -4 -8 -1 -9 -21
right_child=1 7 5 16 12 6 8 23 -10 -11 -12 -13 -14 -15 -16 -17 -18 -19 -20 29 -22 24 -24 -25 -26 -27 -28 -29 -30 -31
leaf_value=0.15269262177603585 0.03201526167690754 -0.036210534286995728 0.094524204991757871 0.020977068766951559 -0.018585768661328723 0.04923145353198051 0.070460446095094081 -0.078633281104266636 -0.0040094290673732755 0.045414789361613132 -0.025709088508899396 0.081123598630345142 -0.068133791888302028 -0.025373811874659234 -0.0036709668212570245 0.096590463271955168 -0.0026148757090171176 0.050256827147943633 -0.00018797473981976509 -0.044157507303836094 0.04731619104743004 -0.068968383429276039 0.05894619939923286 -0.0676190190830014 -0.038743316486477851 0.069934999188598329 0.1006214385509491 0.1245594636440277 -0.10344054358728814 -0.075015739381313326
leaf_weight=21 50 27 48 31 49 25 32 24 20 21 65 43 44 28 40 41 27 35 20 28 24 214 25 22 20 49 25 50 89 20
leaf_count=21 50 27 48 31 49 25 32 24 20 21 65 43 44 28 40 41 27 35 20 28 24 214 25 22 20 49 25 50 89 20
internal_value=-5.49277e-11 -0.0447137 0.0672487 -0.010187 -0.0239256 0.0488408 0.0319544 -0.066733 0.0576799 0.101345 -0.0557757 0.108923 -0.0412986 0.00401592 0.0166761 0.119596 0.0247391 0.0736588 -0.0312067 -0.0376023 0.0729118 -0.0632635 0.0379276 -0.0931928 -0.066385 0.0821029 0.083689 0.132881 -0.0981717 -0.0570151
internal_weight=1257 755 502 294 211 326 194 461 101 176 326 155 161 93 65 112 83 132 117 97 81 261 56 135 234 97 57 71 113 48
internal_count=1257 755 502 294 211 326 194 461 101 176 326 155 161 93 65 112 83 132 117 97 81 261 56 135 234 97 57 71 113 48
is_linear=0
shrinkage=0.03


Tree=30
num_leaves=31
num_cat=0
split_feature=1 1 1 8 8 8 8 5 8 8 8 8 5 5 8 5 8 1 5 5 5 5 8 7 5 1 5 1 5 8
split_gain=3951.49 600.076 329.396 147.808 181.695 142.831 145.77 139.731 99.2173 77.9825 76.7291 76.2922 48.0783 37.4699 37.0405 36.1759 45.0131 35.785 32.289 28.0739 25.9805 24.0533 23.042 17.9708 17.8908 17.4688 17.1729 15.392 14.0502 13.6103
threshold=13.250000000000002 17.550000000000004 8.4500000000000011 294.50000000000006 86.500000000000014 68.500000000000014 299.50000000000006 4.5000000000000009 353.50000000000006 346.50000000000006 244.50000000000003 256.50000000000006 4.5000000000000009 3.5000000000000004 118.50000000000001 4.5000000000000009 88.500000000000014 6.9500000000000011 3.5000000000000004 3.5000000000000004 3.5000000000000004 2.5000000000000004 128.50000000000003 8.5000000000000018 2.5000000000000004 27.850000000000005 3.5000000000000004 10.750000000000002 3.5000000000000004 46.500000000000007
decision_type=2 2 2 2 2 2 2 2 2 2 2 2 2 2 2 2 2 2 2 2 2 2 2 2 2 2 2 2 2 2
left_child=2 3 9 4 24 13 15 10 21 12 22 14 17 27 19 16 -7 -1 -5 -6 -13 -8 -3 -9 -2 26 -24 -4 -16 -15
right_child=1 7 5 18 11 6 8 23 -10 -11 -12 20 -14 29 28 -17 -18 -19 -20 -21 -22 -23 25 -25 -26 -27 -28 -29 -30 -31
leaf_value=0.12889412218416241 0.051299849256703799 -0.035124218182431326 0.098295710102507941 0.055204159615020593 -0.011905533144936749 0.047754509353637696 0.089002174933751413 -0.095226591410098871 -0.0038891457617282869 0.044052346519061494 -0.02493781593671212 0.018814790785455934 0.078689891534835799 0.063770044256340377 -0.051596396240190814 -0.024612596901798886 -0.0035608378588221964 0.093692750058523039 0.0076822142235257402 -0.051494439321437054 -0.023201188047726948 0.056102329005797702 -0.062514030028729739 -0.06559044749899344 0.015147982739976473 -0.03758101679384708 -0.083368577241897585 0.071792520211964111 -0.081184129536151881 0.032406749859452244
leaf_weight=71 22 27 38 31 38 25 36 113 20 21 65 26 43 33 52 28 40 41 22 28 27 45 169 22 28 20 45 41 20 20
leaf_count=71 22 27 38 31 38 25 36 113 20 21 65 26 43 33 52 28 40 41 22 28 27 45 169 22 28 20 45 41 20 20
internal_value=8.39302e-11 -0.0433723 0.0652313 -0.00988136 -0.0198567 0.0473756 0.0309958 -0.064731 0.0559495 0.0983048 -0.0541024 -0.0331843 0.105655 0.0714491 -0.0449344 0.00389545 0.0161758 0.116008 0.0354781 -0.0287008 -0.00258958 0.0707245 -0.0613656 -0.090397 0.0310548 -0.0643935 -0.0668993 0.0845409 -0.0598152 0.0519348
internal_weight=1257 755 502 294 241 326 194 461 101 176 326 191 155 132 138 93 65 112 53 66 53 81 261 135 50 234 214 79 72 53
internal_count=1257 755 502 294 241 326 194 461 101 176 326 191 155 132 138 93 65 112 53 66 53 81 261 135 50 234 214 79 72 53
is_linear=0
shrinkage=0.03


Tree=31
num_leaves=31
num_cat=0
split_feature=1 1 1 8 8 8 8 5 8 8 8 8 5 5 8 8 1 5 5 5 5 5 8 7 5 8 1 5 1 8
split_gain=3717.96 564.611 309.928 139.236 168.136 134.39 137.155 131.472 93.3536 76.6572 73.3737 72.1944 45.2369 35.2555 34.9183 34.8209 33.6701 30.5488 30.1014 27.257 25.8797 22.6318 21.6802 16.9088 16.8334 16.7994 16.4364 16.158 14.4823 12.806
threshold=13.250000000000002 17.550000000000004 8.4500000000000011 295.50000000000006 86.500000000000014 68.500000000000014 299.50000000000006 4.5000000000000009 353.50000000000006 256.50000000000006 346.50000000000006 244.50000000000003 4.5000000000000009 3.5000000000000004 147.50000000000003 80.500000000000014 6.9500000000000011 3.5000000000000004 4.5000000000000009 4.5000000000000009 3.5000000000000004 2.5000000000000004 128.50000000000003 8.5000000000000018 2.5000000000000004 106.50000000000001 27.850000000000005 3.5000000000000004 10.750000000000002 46.500000000000007
decision_type=2 2 2 2 2 2 2 2 2 2 2 2 2 2 2 2 2 2 2 2 2 2 2 2 2 2 2 2 2 2
left_child=2 3 10 4 24 13 15 11 21 14 12 22 16 28 18 -7 -1 -5 25 -11 -17 -8 -3 -9 -2 -6 27 -24 -4 -15
right_child=1 7 5 17 9 6 8 23 -10 19 -12 -13 -14 29 -16 20 -18 -19 -20 -21 -22 -23 26 -25 -26 -27 -28 -29 -30 -31
leaf_value=0.12502729704682256 0.049760853428054939 -0.034070492155022093 0.095346839255408225 0.055976926643272924 -0.0093856470656370917 0.037768995910882952 0.086332109570503232 -0.092369793956786128 -0.0037724719047546387 0.013630241663971294 0.04273077607154846 -0.024189681603931461 0.076329193919204008 0.061856943125074566 -0.07349702780268022 0.010409430714610677 0.090881967544555659 0.0084658838914973399 -0.062829071106389162 -0.030050284892320634 -0.025688137311319057 0.054419259606550134 -0.060638608903398179 -0.063622735034335742 0.014693543187209536 -0.037388930627528356 -0.036453586399555205 -0.080867521127065023 0.069638744163803945 0.031434548646211626
leaf_weight=71 22 27 38 29 31 21 36 113 20 36 21 65 43 33 28 39 41 21 28 20 33 45 169 22 28 51 20 45 41 20
leaf_count=71 22 27 38 29 31 21 36 113 20 36 21 65 43 33 28 39 41 21 28 20 33 45 169 22 28 51 20 45 41 20
internal_value=-1.34831e-10 -0.0420712 0.0632743 -0.00958492 -0.0189307 0.0459544 0.0300659 -0.0627891 0.054271 -0.0315734 0.0953557 -0.0524793 0.102486 0.0693056 -0.0435864 0.00377858 0.112528 0.0360223 -0.0359728 -0.00196995 -0.00613529 0.0686027 -0.0595247 -0.0876851 0.0301232 -0.0268023 -0.0624617 -0.0648924 0.0820047 0.0503768
internal_weight=1257 755 502 294 244 326 194 461 101 194 176 326 155 132 138 93 112 50 110 56 72 81 261 135 50 82 234 214 79 53
internal_count=1257 755 502 294 244 326 194 461 101 194 176 326 155 132 138 93 112 50 110 56 72 81 261 135 50 82 234 214 79 53
is_linear=0
shrinkage=0.03


Tree=32
num_leaves=31
num_cat=0
split_feature=1 1 1 8 8 8 8 6 8 8 8 6 6 6 8 1 8 6 8 8 6 8 7 1 8 1 8 0 8 8
split_gain=3498.23 531.243 291.612 131.446 190.104 126.448 129.049 123.702 87.8364 69.0373 67.9277 42.5634 41.7531 33.2059 41.3924 31.6802 27.7197 24.5941 22.3759 34.0165 21.7612 20.3989 15.9095 15.465 15.0896 13.8508 13.1951 12.2368 12.1613 11.2532
threshold=13.250000000000002 17.550000000000004 8.4500000000000011 279.50000000000006 86.500000000000014 68.500000000000014 299.50000000000006 1.0000000180025095e-35 353.50000000000006 346.50000000000006 244.50000000000003 1.0000000180025095e-35 1.0000000180025095e-35 1.0000000180025095e-35 88.500000000000014 6.9500000000000011 301.50000000000006 1.0000000180025095e-35 162.50000000000003 142.50000000000003 1.0000000180025095e-35 128.50000000000003 8.5000000000000018 27.850000000000005 106.50000000000001 10.750000000000002 330.50000000000006 1.2500000000000002 142.50000000000003 270.50000000000006
decision_type=2 2 2 2 2 2 2 2 2 2 2 2 2 2 2 2 2 2 2 2 2 2 2 2 2 2 2 2 2 2
left_child=2 3 9 4 -2 17 13 10 20 11 21 15 18 14 -7 27 -5 25 19 24 26 -3 28 -23 -6 -4 -8 -1 -9 -12
right_child=1 7 5 16 12 6 8 22 -10 -11 29 -13 -14 -15 -16 -17 -18 -19 -20 -21 -22 23 -24 -25 -26 -27 -28 -29 -30 -31
leaf_value=0.1404941987991333 0.029219465225189922 -0.033048377401298949 0.08645876473281533 0.0067542323110004257 -0.0091040775858827177 0.045712733678519725 0.063876509014517066 -0.070646389918401831 -0.003659297168254852 0.041448852387922147 -0.031785686820745465 0.074039318405611579 -0.062660030770242556 -0.023647493712071862 -0.003495563860516995 0.088155507707014316 0.041552425860182235 0.045668781753097264 0.00051425538584589953 -0.069194512479007236 0.042581058679497796 -0.062945580852226679 -0.061714053113352166 -0.03535997951030731 -0.036183910308324768 0.063784903293969686 0.092964969062805172 0.11320503702163696 -0.094709436571999872 -0.0047401749333366751
leaf_weight=21 50 27 48 45 31 25 32 24 20 21 45 43 44 28 40 41 38 35 20 20 24 214 22 20 46 49 25 50 89 20
leaf_count=21 50 27 48 45 31 25 32 24 20 21 45 43 44 28 40 41 38 35 20 20 24 214 22 20 46 49 25 50 89 20
internal_value=-3.15516e-11 -0.040809 0.0613761 -0.00929737 -0.0218785 0.0445757 0.0291639 -0.0609054 0.0526429 0.092495 -0.050905 0.0994109 -0.0377474 0.00366523 0.0154307 0.109152 0.0226859 0.0672264 -0.0283786 -0.0343358 0.0665447 -0.0577389 -0.0850545 -0.0605878 -0.0252816 0.075005 0.0766346 0.121276 -0.0895987 -0.023464
internal_weight=1257 755 502 294 211 326 194 461 101 176 326 155 161 93 65 112 83 132 117 97 81 261 135 234 77 97 57 71 113 65
internal_count=1257 755 502 294 211 326 194 461 101 176 326 155 161 93 65 112 83 132 117 97 81 261 135 234 77 97 57 71 113 65
is_linear=0
shrinkage=0.03


Tree=33
num_leaves=31
num_cat=0
split_feature=3 3 8 8 8 5 8 7 8 8 8 8 5 5 8 8 8 8 3 5 5 5 5 8 8 8 5 8 5 5
split_gain=3025.85 622.635 317.665 191.538 283.604 106.79 94.4924 83.0703 87.8507 58.2236 50.2353 50.1947 46.9533 44.1229 42.4133 42.8451 27.5351 24.9376 24.4844 23.6938 22.9394 22.2982 19.9693 18.438 16.3362 14.9158 14.6144 13.9009 13.7036 11.0594
threshold=3.350000000000001 8.3500000000000032 266.50000000000006 76.500000000000014 287.50000000000006 4.5000000000000009 52.500000000000007 10.500000000000002 348.50000000000006 90.500000000000014 118.50000000000001 74.500000000000014 4.5000000000000009 4.5000000000000009 352.50000000000006 306.50000000000006 240.50000000000003 286.50000000000006 14.400000000000002 3.5000000000000004 2.5000000000000004 3.5000000000000004 4.5000000000000009 242.50000000000003 138.50000000000003 46.500000000000007 3.5000000000000004 118.50000000000001 2.5000000000000004 1.0000000180025095e-35
decision_type=2 2 2 2 2 2 2 2 2 2 2 2 2 2 2 2 2 2 2 2 2 2 2 2 2 2 2 2 2 2
left_child=2 3 5 13 9 10 18 11 -9 20 -1 21 17 25 15 -6 26 -4 28 27 -5 -8 -17 24 -7 -2 29 -11 -3 -12
right_child=1 6 12 4 14 23 7 8 -10 19 16 -13 -14 -15 -16 22 -18 -19 -20 -21 -22 -23 -24 -25 -26 -27 -28 -29 -30 -31
leaf_value=-0.010543956328899814 0.074871937150650839 0.10528879536049707 -0.0022578437604869788 0.035749018035829069 0.021193067521195517 -0.065079675045692259 0.074966625204453102 0.10635353288229774 0.032167355004698035 -0.006733079832047224 -0.066257789226678701 0.000548930015148861 -0.037671828525406972 0.023108540353748729 0.001733515128493309 0.074658218979835517 -0.033455598601698874 0.034123642966151238 0.12672900080680846 -0.043448785109058863 -0.0081815911084413533 0.0339293494718996 0.041633534775330466 -0.055320944743497025 -0.091463647429476075 0.049947481235547458 -0.071651406718624966 -0.033368082771013524 0.082619777667735303 -0.050380013626432275
leaf_weight=26 47 42 39 20 33 27 26 51 20 45 52 21 21 34 20 45 50 30 23 53 23 22 26 21 97 40 54 29 56 164
leaf_count=26 47 42 39 20 33 27 26 51 20 45 52 21 21 34 20 45 50 30 23 53 23 22 26 21 97 40 54 29 56 164
internal_value=-5.79076e-11 0.0431511 -0.0502068 0.0203182 0.00724316 -0.0597041 0.0794563 0.0626749 0.085456 -0.0179214 -0.0506469 0.0392334 0.00160606 0.0520874 0.041743 0.0494371 -0.0539053 0.0135602 0.0988728 -0.0281374 0.0122513 0.0561579 0.0625647 -0.0813163 -0.0857188 0.0634124 -0.0576922 -0.0171711 0.0923351 -0.0542024
internal_weight=1257 676 581 415 294 491 261 140 71 170 346 69 90 121 124 104 320 69 121 127 43 48 71 145 124 87 270 74 98 216
internal_count=1257 676 581 415 294 491 261 140 71 170 346 69 90 121 124 104 320 69 121 127 43 48 71 145 124 87 270 74 98 216
is_linear=0
shrinkage=0.03


Tree=34
num_leaves=31
num_cat=0
split_feature=1 1 1 8 8 5 8 8 8 8 8 5 5 5 5 8 5 1 8 8 8 5 8 8 8 5 1 8 1 5
split_gain=3101.57 471.537 258.951 117.497 168.984 113.047 112.032 113.178 78.3725 61.8086 47.6892 38.9653 37.4943 34.4233 30.5528 37.2312 29.9718 28.6817 26.6242 20.9002 30.5305 19.9708 18.2917 16.8994 16.8296 15.1669 13.4567 13.3796 12.5207 12.3072
threshold=13.250000000000002 17.550000000000004 8.4500000000000011 279.50000000000006 86.500000000000014 3.5000000000000004 68.500000000000014 299.50000000000006 353.50000000000006 346.50000000000006 240.50000000000003 4.5000000000000009 4.5000000000000009 3.5000000000000004 4.5000000000000009 88.500000000000014 3.5000000000000004 6.9500000000000011 250.50000000000003 162.50000000000003 142.50000000000003 2.5000000000000004 301.50000000000006 128.50000000000003 131.50000000000003 2.5000000000000004 23.700000000000006 106.50000000000001 10.750000000000002 4.5000000000000009
decision_type=2 2 2 2 2 2 2 2 2 2 2 2 2 2 2 2 2 2 2 2 2 2 2 2 2 2 2 2 2 2
left_child=2 3 9 4 25 10 16 14 21 11 24 17 19 22 15 -8 28 -1 23 20 27 -9 -5 -7 -3 -2 -26 -6 -4 -25
right_child=1 5 6 13 12 18 7 8 -10 -11 -12 -13 -14 -15 -16 -17 -18 -19 -20 -21 -22 -23 -24 29 26 -27 -28 -29 -30 -31
leaf_value=0.11451679844251821 0.046183636384931476 -0.025028023526072501 0.087395254310808676 0.021589927157508029 -0.0086622781931392605 -0.052688912249037191 0.043579520559310914 0.079227242618799196 -0.0037414110302925107 0.038816444583769351 -0.020315708524026605 0.069384571384898452 -0.05920191792517223 -0.00057421310494343443 -0.022624641765973397 -0.0030897710225544868 0.045827802449535091 0.08300222832982132 -0.046035747163825559 0.0012079563438892364 -0.065497530566062778 0.049249186161905524 0.059234325502599987 -0.069519455207968664 -0.060010660277872253 0.012897480889888745 -0.042413010378762828 -0.034161548758654493 0.063491498202812385 -0.087224978624649771
leaf_weight=71 22 20 38 26 31 21 25 36 20 21 59 43 44 36 28 40 53 41 27 20 20 45 21 53 116 28 59 46 41 106
leaf_count=71 22 20 38 26 31 21 25 36 20 21 59 43 44 36 28 40 53 41 27 20 20 45 21 53 116 28 59 46 41 106
internal_value=-1.9046e-12 -0.0384258 0.0577918 -0.00873769 -0.0206326 -0.0573592 0.0419602 0.0274535 0.0494412 0.0871163 -0.043948 0.0936601 -0.035594 0.0215011 0.00357427 0.01486 0.0632806 0.10298 -0.0738155 -0.0267158 -0.0324733 0.0625728 0.0384098 -0.0779825 -0.0510983 0.0275434 -0.0540777 -0.0238956 0.0749895 -0.0813231
internal_weight=1257 755 502 294 211 461 326 194 101 176 254 155 161 83 93 65 132 112 207 117 97 81 47 180 195 50 175 77 79 159
internal_count=1257 755 502 294 211 461 326 194 101 176 254 155 161 83 93 65 132 112 207 117 97 81 47 180 195 50 175 77 79 159
is_linear=0
shrinkage=0.03


Tree=35
num_leaves=31
num_cat=0
split_feature=1 1 1 8 8 8 6 8 8 8 8 8 8 6 6 8 1 7 6 6 8 0 1 6 7 8 0 0 0 8
split_gain=2918.27 443.669 243.647 111.148 132.479 106.253 103.538 62.4518 58.7977 80.2357 79.8126 58.1557 56.8151 36.6625 36.4365 29.6674 26.9866 25.3043 24.043 21.8319 17.2857 16.6593 14.48 13.8978 12.9453 12.9216 11.2771 10.9162 10.6341 10.2895
threshold=13.250000000000002 17.550000000000004 8.4500000000000011 295.50000000000006 86.500000000000014 46.500000000000007 1.0000000180025095e-35 256.50000000000006 308.50000000000006 80.500000000000014 353.50000000000006 346.50000000000006 244.50000000000003 1.0000000180025095e-35 1.0000000180025095e-35 147.50000000000003 6.9500000000000011 9.5000000000000018 1.0000000180025095e-35 1.0000000180025095e-35 128.50000000000003 8.2500000000000018 27.750000000000004 1.0000000180025095e-35 8.5000000000000018 106.50000000000001 8.8500000000000032 1.2500000000000002 8.0500000000000025 142.50000000000003
decision_type=2 2 2 2 2 2 2 2 2 2 2 2 2 2 2 2 2 2 2 2 2 2 2 2 2 2 2 2 2 2
left_child=2 3 11 4 -2 26 12 15 9 14 23 13 20 16 28 18 27 21 25 -9 -3 -11 -22 -10 29 -6 -4 -1 -7 -8
right_child=1 6 5 -5 7 8 24 19 10 17 -12 -13 -14 -15 -16 -17 -18 -19 -20 -21 22 -23 -24 -25 -26 -27 -28 -29 -30 -31
leaf_value=0.12923237494059969 0.026717087870277462 -0.030010881407393348 0.075601869711509118 0.032272680178284642 -0.0084024100744676204 0.071561598237603899 -0.064398057442158457 0.012633833841731149 0.072572346671539195 0.0050510211177170273 -0.0036291682720184324 0.03765195147167625 -0.021393153757680777 0.067303034171981871 0.010060165865080697 -0.066461034527580648 0.080512161778240665 0.027999003835022448 -0.055875041963798652 -0.026458811899647116 -0.057765911659577257 -0.026308800020525533 -0.032195731564001601 0.043574515080877715 -0.056677618477154863 -0.032961958701010138 0.049841163307428361 0.10345784182548523 0.043015279144291645 -0.086531858839345777
leaf_weight=21 50 27 65 50 31 24 24 36 51 30 20 21 65 43 21 28 41 20 28 20 212 31 22 21 22 51 20 50 23 89
leaf_count=21 50 27 65 50 31 24 24 36 51 30 20 21 65 43 21 28 41 20 28 20 212 31 22 21 22 51 20 50 23 89
